-3.0725686766 1.9482435218 -2.7691214371 3.1390351291 0.1570225271 -0.5011198408 3.1801783975 2.7388766592 1.4307306253 0.1728259200 -0.8530050200 2.1668310232 -1.6692541860 1.6146020651 -0.3566760014 2.1491000484 0.1228337184 -0.0579696412 -0.0998206211 3.3775385054 -0.0334347808 0.0666798827 -2.0949162509 1.8940197581 0.0454060047 1.4588844148 -0.9217431226 0.0231999791 1.8801490102 -0.1837768470 -1.3374486226 -0.4674032669 -0.9360188026 -0.8411323726 1.4599819188 2.4037909431 -0.2551898159 -0.2106304602 0.4155411442 -0.4464031191 -0.8364461760 0.0631499179 3.2008774833 2.5150725115 -0.3968342435 0.1127495011 3.3852183818 -1.2242598770 -1.1405138287 2.4607014639 1.6341652900 -1.4270285690 2.1713363431 0.9545339730 2.0012978836 2.3918730394 2.2631307729 2.4520262515 -0.4648490424 2.3251931649 1.9180187382 -0.0012638394 2.5537656050 -0.5156218240 1.3907870672 2.8171533772 -0.8507101794 -1.3115752232 1.8155227472 2.3515392165 -0.0644296018 2.6929675365 0.1767532680 0.9778108270 -0.4505627858 1.9473028160 -0.2805272345 -0.1856086830 -0.5278074291 2.1903426234 