0.2238870517 0.1871275997 -0.0205313133 0.4527498973 1.3028359269 1.6131221286 -0.1481392175 -0.1038722142 0.1231991699 -10.4712084417 1.8412107353 0.2519065574 -9.2650046244 -0.0285140047 -0.1684439036 0.3023180061 -8.8512596927 4.0472704744 -8.8291626021 -12.0637472356 0.3365615352 0.8698011082 1.8582822408 0.5633538010 3.0476537133 0.3750961662 -9.6484437537 -0.1828163275 0.3092046000 0.0767276546 1.7620119845 0.1255744886 0.5708262507 0.4030346276 -6.3549222929 0.0155610022 -10.7655844482 -8.9862402840 3.9583922354 1.4145626470 0.2497795720 -0.2125360327 0.5780127746 -0.0983286758 -15.3979289441 -10.9678067718 1.6324884725 -10.1097935605 0.1970827307 0.3010924104 0.1070639732 3.2842913324 1.4192516872 -12.1623403918 0.0044708753 -0.0216671337 1.4026487701 -0.0932212318 0.2672561342 0.4530814526 0.1271675617 0.0621166786 0.3370598935 -0.0022983024 0.0499685142 0.1054999999 0.0840747154 2.1859806588 -5.2567984574 0.5524467549 2.7339969157 1.2021154614 1.4710039587 1.4807714299 0.1628350860 -0.1141576657 -5.8520869468 -0.2178768820 1.3754145822 0.1171828124 0.6942449508 -0.0246833540 -0.0596755084 -0.0061664680 0.2313295229 0.1795388191 0.3048357078 0.2266615203 -0.0965824701 -0.0712575308 3.4780730681 -5.8609512335 0.5148220254 -10.1859530205 0.3183074312 0.3963185026 