-0.2057609177 0.0367981030 -0.1096657865 0.4920483812 0.0389785365 -0.0608291792 0.0483538213 -0.0684362431 -0.1832616017 0.0754798729 -0.0530612771 -0.0179206251 -0.0352612856 0.0216733814 0.0338355048 -0.0137713438 0.0720691591 -0.0024431524 -0.0556155869 -0.0299828640 -0.0495750558 0.0615967383 -0.0730769326 0.1130400891 -0.9033140293 -0.0686560518 -0.1174674590 -0.0199632093 0.3636702910 -0.0221264657 -0.0015160386 -0.0718133799 -0.1913950486 -0.0433558468 0.1860386322 -0.0771993244 0.1109774209 0.0264080939 -0.0010610679 0.0992902957 0.5249705347 0.1810973957 -0.2399428558 -0.0096741387 0.0070969582 -0.1331350664 -0.1196752594 -0.0061137711 -0.0998435762 0.1455173316 0.0445929895 3.2621392683 0.0719589172 -0.0587149512 -0.1568029670 0.0335918323 0.0197131181 0.0438522638 0.1745150644 0.0374557720 0.0149376081 0.0709960532 -0.0421167423 -0.0063072417 0.0606571952 0.0448087072 0.0719953795 0.0113352829 0.0708829594 -0.0364774086 0.0299839380 -0.0534252878 0.0166049404 0.1076925021 0.0184517961 -0.0516001419 0.0831540488 0.0117132074 0.0085663585 -0.1820702276 