-0.2883527965 0.1351196464 0.0992047121 1.2746979872 4.5557331728 -7.3932786735 0.0577991348 -0.0605207068 -0.1717962691 -0.0120044814 0.2463002663 -8.6060728974 0.0931510431 -8.6749604651 -4.5326327405 -0.1253054919 0.1843577377 -3.4150578432 0.9495995613 0.5639307473 -0.2177737944 0.0652781053 -0.5029614017 -0.0890871981 -0.2262982595 -6.3089291375 -8.8248105646 -0.0383282740 0.1649905228 0.0698350171 -0.2004000123 0.1390190686 -4.5540313855 0.1445588295 0.0979226445 -0.0914323126 -0.2268746941 -3.3597813071 -0.0469554566 -2.3178667083 -0.2735207164 0.2634206540 -2.6983171114 0.0092203990 -4.7508664460 0.0289069410 0.1681737127 4.9590009637 2.1946686166 -0.0746986631 0.2312387502 0.9096257004 0.0606293913 0.0217260082 -5.1784179199 -5.4407726187 -0.1541650025 -0.1207661862 -0.0654997754 -0.0055698389 -5.4305214477 -0.1262046350 1.0553322768 -0.1169637892 0.0078247840 -2.1971924422 -5.9854935496 0.0186556726 0.0871569125 -0.1951697512 0.9594096539 0.3617625142 -0.0879696161 -7.7936291783 -0.1560707397 -7.2549327536 -5.1953926029 -0.1379970800 -0.0852534967 0.3251488110 