-0.0806048741 -0.5258082217 2.1519210337 0.0923321949 0.0930386641 2.4406816925 0.4973012627 1.3478842381 5.3003813904 1.1104236246 -0.2541718750 0.5545366196 13.1848349800 0.9280287737 8.9605996955 -0.2018379922 -0.0523147140 -0.0853221810 0.5560806283 4.0263022354 4.2766019758 1.5982945571 2.2397356423 2.0644440748 0.0954937540 -0.1056411477 0.1041109258 1.4784466235 0.0109177537 -4.0048007989 3.0140278895 2.0448850915 -0.0638943181 1.5574597011 0.6937204803 1.9303992728 3.7867412148 0.6788678675 -0.4718672382 0.5146542891 0.7974308351 -0.0083470860 -0.4090852152 0.7984173497 -0.0234999595 -0.6608661145 0.7945011266 5.4350908732 -0.2191908719 -1.5329873918 0.0801584128 -0.1741691006 -0.3313858044 -0.0233210384 -0.0933824000 -0.0781092586 -1.7830015876 3.3664328985 -0.2033884375 1.1377945863 -0.1434903043 -0.2501060083 4.1872629267 0.0546029525 0.1464749772 -0.0093852367 -0.0369340396 1.1127966037 1.4538019402 -1.4355754951 -0.0045966250 0.2558244111 -0.0701710618 3.6442849357 0.0641103464 1.2287946160 11.3324518865 -4.0141008464 1.5580753502 -0.0681428433 