1.0843905164 -2.1887190914 0.0660716246 -0.9165161601 6.2228741738 -0.7587696000 -1.8928144154 2.1922324170 4.6065529968 -2.0711570694 4.6364919757 3.1833856160 -0.3604469529 -1.8681478581 -0.4005665246 4.3847440489 6.1779725820 11.9186158300 1.7883611173 -3.4506975333 -0.3681719357 -1.3004377874 -1.9294593819 -2.5676963867 -1.9376762149 -1.2170198256 7.4084469293 -0.7836904984 -1.9847783260 2.6010766227 -1.8750989762 0.2277597284 -2.3133304007 3.4971419507 0.6915311231 1.3466825947 -3.9851128457 -2.3301287861 4.5793197869 0.1412915716 0.4321163604 -2.0638975099 -0.4338466437 4.9978625059 3.5292104630 -0.7684078183 -0.6943951464 -2.2937161225 -2.0909855286 6.1792201483 -1.9833757331 -0.1650105872 -2.2402429621 10.1675025327 -1.9094752319 2.0104064424 -2.0518586527 10.7802268508 0.0518856923 -2.1696403626 -1.7037802990 6.1141189807 4.5196106921 0.1177401345 -1.9709202997 -1.3663258785 4.3542881153 7.4729029005 -2.0867632352 1.3016226431 -2.2568993898 -0.0921063107 -1.5755845556 -0.0127398259 -0.0010745920 -2.4432213146 20.0268202741 -0.6838122195 7.8390169141 -1.2508527089 -3.6135401677 0.3025423262 3.1278545493 7.9093720886 -1.8349019144 -0.1035940084 9.6477095313 1.6995451270 -0.5449846130 2.7604750697 -1.0751389892 -1.9327882466 0.1320607663 -1.8970444831 5.0192583561 -4.0206035829 