1.5685275927 2.0699259746 -0.5155457310 8.4707801738 -1.0515297232 -1.6753481117 -1.5311238187 2.4245464322 1.8480732477 -3.5543777279 -3.4994019805 6.7209528917 0.9925497420 -3.6772280448 8.7056557743 1.7736575517 -0.0853674856 -4.3536904076 -1.9970419386 31.5774311006 -1.9914139092 -0.9454390729 1.6643050623 1.9587378696 -0.8541650251 -1.0231010279 4.2307235991 2.3094524903 1.9491490844 7.3531054994 -0.3847916559 2.4829821889 1.9455792686 0.0564078754 -1.8647799890 -2.0997192352 2.1954889853 14.0620772735 -1.9720617467 12.0123277276 -2.1902050358 25.1797644499 -0.7155823468 -0.1399486906 19.1859173715 -2.7751570811 -0.2111814808 6.7731643854 -3.5028592403 -0.5877479507 -0.4078497965 -2.0019445037 2.6029028609 2.0020233392 -0.9846638492 -0.4650577088 1.6527833607 1.3345604500 -1.5757053096 0.0821398442 -2.1067723881 -0.3016156339 -4.0767425153 0.8946027442 -0.7962227356 12.7274370241 7.6945709058 0.5821627264 -0.3430546645 -0.3568324270 -1.7090530642 -3.5364913588 -0.5202184433 -3.4445900527 1.8725386955 -1.8406277642 -2.5872966801 7.0198521128 7.9654137999 32.6920668884 