-0.0311137691 -0.0250710706 -0.1711046379 -0.0482129401 -0.1056014065 -0.0482869822 -0.1127822981 0.0349660177 -0.9078979339 -0.0405679776 0.0044977712 0.0362988548 -0.1515193773 0.0722195366 -0.0254851170 0.0188931397 0.0932178196 -0.0667535111 -0.0460336293 -0.0924207423 0.0145316004 -0.1401079012 -1.0802120923 0.0386690071 0.1184872651 -0.0580824619 -0.1298921196 -0.2472410129 0.0244175731 -0.1561408097 -0.0690901691 -0.1701004959 -0.0062575064 -0.0844675665 -0.0276017452 -0.1378356961 0.0985397637 -0.0631456054 -0.0549948378 -0.0329714841 0.0210522373 0.0249482880 -0.3109701393 0.0007062972 -0.1529629644 -0.0698596092 -0.0619456699 -0.1356135487 0.1189719099 0.0604679726 0.0187982727 1.6370581777 -0.2438183034 -0.0466590052 -0.0440221518 -0.0208539417 -0.1394074334 0.0476201841 0.0514716555 -0.0390716769 -0.0753295101 -0.1376840142 -0.0209638664 -0.1413801333 -0.0371218235 -0.0043754362 0.1232770654 -1.2696694160 -0.0394851360 0.1069276515 -0.0014766494 0.0339311001 -0.0864454731 0.1246443868 -0.1340866052 -0.0390048599 -0.0399828855 -0.0181752216 -0.0052407042 -0.0171007474 0.1853695074 -0.0991973122 -0.0623387994 -0.1887279686 -0.0923161842 -0.0461324738 -0.1679509635 -0.0693704825 -0.1343528186 0.0826484515 -0.0815593766 -0.1837751914 -0.0738637863 -0.1338869465 -0.0163877074 -0.1099489625 