1.2490127087 -0.6623956561 0.2655049562 0.4715178609 0.1493179798 0.5051012635 -0.4518704712 -0.2738181055 -0.4068105221 -0.4383152723 -0.5116199255 0.4188189209 -0.6791548133 0.4247129858 -0.5288048983 0.5221899152 0.0449072644 0.2887955010 -0.5447739959 -0.4698677361 -0.4951725304 0.1551554799 0.5530951023 -0.4983702302 -0.3288954198 0.0007722917 0.6690022945 0.3035085797 -0.0790674835 -0.2719669342 -0.4736689627 -0.4716370106 -0.4687670171 -0.5347105265 -0.5549162626 -0.4776810706 -0.4631875455 0.2782278359 0.4137914777 0.3985928595 0.2965174317 -0.5182646513 0.1743421555 0.1395334303 -0.4430905879 0.2311470062 0.1818966419 -0.1626230776 -0.7282383442 -0.2229420543 -0.0466286540 0.2944205403 -0.4813593924 -1.0226582289 -0.4755801857 0.1737368256 0.4959540963 0.1215172410 -0.0713922977 1.5552678108 0.4837562144 1.1317050457 -0.2235441506 0.2827904522 -0.0486786813 -0.4691112638 0.2913562953 -0.7608522773 0.3987840414 0.7476994991 -0.4671951234 0.1402466595 -0.4202989936 0.0023964611 -0.4296970367 -0.4932536483 -0.0964287072 0.0098370677 -0.5132364631 1.8363229036 0.1000392213 0.2112699598 -0.4189080596 -0.8643592596 0.0348199755 -0.2191486210 -0.6544105411 0.1745151132 -0.8054064512 -0.8576248884 -0.6783607006 0.3283315599 -0.9269939661 -0.4230101407 0.4158476293 0.2317112088 -0.3267867267 -0.0794717818 0.1406564713 -0.5370462537 -0.4209586978 0.9428464770 0.1269285232 -0.1243039891 -0.5347434878 -0.1686500311 -0.6739636064 -0.4203294218 0.4915339351 -0.3267306685 0.6453457475 0.2931117713 0.4914143980 -0.6379624009 0.6392074823 -0.4880687594 -0.5470006466 -0.4980064929 0.4519512653 0.5040709376 -0.4690202475 -0.5702023506 -0.4565554857 -0.5270767808 0.3487456143 0.5188893676 -0.9448397160 0.0180606879 -0.9135317206 0.2118481398 -0.4462394416 -0.0490709841 -0.4791186750 0.5694706440 -0.5606554747 -0.6003610492 0.5614086390 -0.0930009410 0.3011433780 1.9857913256 -0.4638529122 0.6031020880 -0.5417834520 0.2787133455 