-0.4097933471 -0.2614035904 -0.0454631336 -0.0665081143 0.3967093229 0.1023142859 0.7267658710 0.5145681500 -0.1621691734 0.1817684770 0.0291894861 0.0046646367 0.4096370041 0.8421603441 0.0014221770 -0.1416415721 0.0944332704 0.3401952386 -0.2285210937 0.1887435913 -0.1497683674 -0.1726862341 -0.2450003177 0.1274110228 0.5974065065 0.0074671428 -0.1027309671 0.5119352341 -0.0533094630 0.2753193378 -0.3440856636 0.1857120395 0.1256934702 0.1677181721 -0.1315506399 0.3214773834 0.3245701194 0.3498953581 -0.4432678521 -0.8240925074 -0.2323567420 -0.0100443894 -0.4506191909 -0.1890647560 0.2258681804 0.9149669409 -0.0026725198 0.2693447173 0.0751752928 -0.2128357738 0.3779168427 -0.0992449000 -0.0120948628 0.1660835147 -0.1610139459 0.0017677837 -0.0690802708 0.4166129827 -0.3181917369 0.4463733435 0.0426745713 -0.0450095572 0.5783000588 0.3217720091 0.1125751436 0.2619917095 0.2069832832 0.0140118618 -0.2085105479 0.4823758304 -0.3999485672 -0.1701220274 -0.3993943632 0.2077985406 0.0105896993 0.6475227475 0.4360997975 -0.0180103276 -0.0356276073 0.0678718537 