-1.5480200052 0.0771655515 0.0534779616 -0.6334471107 0.0719364211 0.2382253706 2.9348433018 0.2977575064 -0.7157998681 0.9781888127 1.0846909285 0.3201615512 -0.2665346265 0.7132873535 0.1343895793 -0.3761242628 1.0146142244 0.7685067654 -0.6220083833 1.4910918474 0.1635935903 0.7366909981 0.1999545842 -0.0004453742 2.2149124146 2.1759891510 0.5465086699 1.2984048128 -0.4858363271 1.4775842428 -0.0517350845 0.4851531088 -0.1672085822 1.0018177032 1.2156739235 0.8567184210 0.4779755473 1.1266978979 -1.0330204964 1.1460214853 0.7859735489 0.2519975901 0.4191149771 0.4904050529 -0.4249819815 -0.8939993382 -0.6313998103 -0.5644401908 0.7103763223 0.8250943422 1.1641173363 1.5066806078 -0.6721603274 0.6805139780 0.7066825628 0.6101760864 0.2636797428 0.0859810337 0.0931423753 0.3536339104 1.6466090679 0.3320221603 0.8971368670 0.1307032555 0.2785314620 0.2222002745 0.0863862783 0.6948681474 0.1979348361 -0.6426131725 0.2856987715 0.1194217578 -0.7110084295 0.8195928335 -0.2932606041 0.6203594804 1.0560616255 -1.2129720449 0.0536473356 0.7117291093 0.3678685725 -0.6412066817 0.0167078115 0.1796973646 2.0562012196 0.5133597255 0.2416158617 0.0162792802 0.8228554130 0.4901129305 0.1033356786 -0.8324098587 -0.2046830654 0.3180317879 0.6647111773 0.3177725971 0.3655878007 -0.1708602309 -0.3947067857 0.4186506867 -0.7160658836 0.3145907819 0.9965531230 0.4882512689 