1.8297735453 -1.1336259842 1.8785449266 1.7065351009 -0.5376778245 -1.1023405790 1.7425941229 1.5249010324 1.5221672058 1.0711556673 1.7289026976 1.8151258230 -1.8466534615 -1.2378351688 1.6051920652 -1.3012588024 1.7773855925 -0.5678504705 -1.1060149670 1.8859434128 -1.4239730835 -1.1200045347 1.6754919291 0.3054933250 -1.1167001724 1.3950350285 -1.6043583155 1.7073854208 1.5519568920 1.8933960199 0.0500793718 1.7006838322 -1.1877954006 1.8595304489 1.6866483688 1.7766046524 1.9124379158 -0.8641266823 -0.6003751159 1.5994242430 -1.2354221344 -1.7003719807 -1.6481102705 1.8590850830 -1.7623562813 -1.2103235722 1.8982809782 0.0511436649 -1.4169721603 0.4368441999 1.0822808743 -0.9698476195 1.7803623676 1.8843199015 -1.6278461218 1.9075738192 1.8393123150 1.0837522745 1.8128560781 -1.1017600298 1.7131470442 -1.4121015072 -1.0555230379 -1.6073751450 -0.7822155356 1.8374749422 0.8710618615 1.4256852865 0.2092867047 1.6486107111 1.8808331490 -2.0335917473 -1.0606098175 1.7703120708 1.3303601742 -0.0943420902 -1.0785226822 1.7026677132 1.5920906067 -1.5467469692 1.8091957569 -1.9111232758 0.0128004784 1.7212170362 -1.2881256342 0.8486474752 -0.3217263818 1.7778476477 -1.0946872234 1.8710161448 -1.1558612585 -1.6903965473 -0.9573562741 -1.0212885141 1.8107416630 1.7777286768 1.8978910446 0.3456839621 -0.9070615172 -1.4649837017 -0.7002316117 -0.5035099983 1.8021421432 -1.3158481121 1.8369661570 -1.0524519682 -0.6668969393 -1.3936257362 2.0340192318 1.1823507547 1.8716791868 -1.2046437263 -1.0099996328 1.7832577229 -1.0171381235 1.2496643066 1.5996572971 -1.7730308771 -1.9194620848 1.4492442608 1.7655032873 -1.1119632721 1.7545514107 1.8353360891 1.7822629213 1.8388401270 -1.4520297050 1.5384873152 -1.7682912350 -0.8513857722 1.5635739565 -1.1743959188 1.6943205595 -1.0289682150 -1.2811998129 -1.0760238171 1.3033750057 1.7588297129 -1.5341222286 -1.6816698313 -1.2916646004 1.7710013390 1.8096168041 1.5821387768 