1.3799260855 -1.7635742426 -0.4060125053 0.6403575540 1.3399806023 -0.0076624616 -0.0906682163 0.1382813752 -0.5149545670 -0.4347355366 1.1052205563 -0.4811332226 0.5450108647 0.9056478143 0.0261000190 0.7896193266 0.2263167202 1.5690366030 -0.3456401825 1.7398399115 0.3699190319 0.8145426512 0.5426931977 0.1240351871 -0.8891910315 0.7960224748 0.4266833663 0.3891124129 0.6127935052 -0.1729153544 -0.7692891955 -0.5055894256 0.7571946383 -0.0004576466 0.3620033860 -1.7242553234 0.4770216048 -0.3764226437 -0.2238929123 0.0875359699 0.7044427991 -0.2906884849 0.6161458492 0.0268348716 -0.1626608521 -0.9333176017 0.2325571030 0.9219242334 0.7172335982 -0.0162112694 -0.5684994459 -1.4460875988 -0.9394981265 0.3071702719 -0.5892142653 -0.9153017402 0.3914060593 0.8586090803 -0.7802293301 -0.8561711311 0.0822553188 -0.2147302628 0.0040024207 0.8368877172 0.6868188381 0.6953200102 0.2847599387 0.4625614583 1.2293763161 -0.2340833694 0.6565062404 -0.4079779088 -0.2859647572 0.9025080204 -1.3016146421 -0.9417656660 -0.8780431151 -0.0644293502 0.5580173731 -0.5512386560 0.2325905710 -0.0535302348 0.0558047444 1.0964756012 0.9310967326 1.2204602957 0.4303323627 1.7049469948 0.5784167647 -0.2514592111 0.3340481222 0.0393926203 -0.2062268257 -0.0202523340 -1.5372440815 -0.4072710872 1.2234623432 -0.2272473276 -0.0500081219 0.1006505713 -0.5220541358 0.1810491383 -0.3683549464 -1.0784136057 