-15.4594259262 -2.6116895676 -4.3211913109 -7.6147041321 -1.8792842627 -16.9410057068 0.7344070077 -9.6306085587 -10.0078058243 -8.2459230423 -15.8096933365 -6.4430503845 -13.9570426941 12.4617681503 -1.7061237097 -11.4168958664 -17.8163795471 -10.2520370483 20.0114173889 -0.3066133857 5.3963069916 -10.7517671585 6.7509341240 -10.0460729599 -6.1035537720 -7.0345325470 10.7332744598 8.0098600388 -0.9747170806 -3.1508631706 -5.2580432892 -1.5440216064 4.2959842682 -10.6628284454 -2.7886879444 -9.1177206039 -11.5113811493 -13.9281558990 -5.9525098801 10.9997901917 -3.6670308113 -0.4730966985 15.1680479050 -3.7316775322 -14.2785673141 -3.7147881985 -8.8350944519 -7.7984471321 5.1887407303 -2.4661130905 11.8668193817 5.6557278633 23.3070545197 7.5097537041 2.8226335049 -8.5312213898 -3.2891597748 -8.1112174988 -7.9274625778 -9.9178714752 -10.2206764221 25.2338008881 14.7646465302 0.6348120570 2.8658359051 -0.5727205276 14.3898029327 -13.4197635651 8.5208654404 -16.4966621399 -3.2544951439 -10.2547168732 