-9.1635475159 -9.1798076630 -2.0833978653 -0.4602407217 4.0604357719 -0.3366078138 -0.4795593023 -0.5423488021 -9.0611295700 -2.0753717422 -0.8947206140 -0.7463421226 -7.7435731888 11.1628417969 3.8159017563 -0.8083062172 4.1925239563 0.0570573732 6.7535467148 -0.1520685256 -0.9244533181 1.0052419901 -0.0810466632 -1.2106794119 -1.6154179573 -0.5372546911 -8.7973918915 -0.5934914947 8.9533681870 -8.1007442474 -9.0765352249 -9.1260757446 -8.5097036362 -1.1195787191 -2.0866708755 -0.7665009499 7.9883871078 -3.7530000210 2.3510258198 -1.6419522762 -8.9875488281 -0.1699251235 -0.4433662593 -0.1133778021 -2.3652906418 -0.1200083345 -0.2880924344 -8.5540657043 -0.5713528395 -1.3036683798 -0.3003343046 -0.8303240538 9.5188055038 -1.1615288258 -2.3888947964 -0.0329008475 6.5167684555 -5.8020896912 -6.7582020760 11.1160898209 -8.7839155197 -0.7067040801 -0.0594325475 19.5706043243 -0.9525744915 3.0746810436 9.7002496719 9.0640087128 -0.0994797647 -0.1406161189 -2.1973223686 -0.9089866877 -8.8388423920 2.0727968216 -0.1810065061 4.5937013626 7.7318029404 -0.3156471252 -8.3611774445 14.5166263580 -2.2617626190 -0.0330217928 0.6981160045 -9.1580848694 -8.2315435410 -1.1946848631 1.5461559296 -1.0471726656 -5.5439229012 -0.0473511480 -0.0056845471 -0.3710338771 17.5903377533 8.2773361206 -5.0908021927 -0.1338979751 1.3568407297 -8.9872398376 -4.9619603157 -9.0254278183 7.3558835983 -0.2572340071 -0.2007072270 8.4123764038 