-0.0271362811 -0.2649132311 0.0018822605 0.5483541489 0.3794940412 0.1864391565 0.4090016186 0.5460466146 0.6449133754 -0.0522472188 0.0712550357 0.0307462104 0.0739448071 -0.1078151017 -0.1102809533 0.8327157497 -0.0471526645 0.0509711020 0.0897037312 0.5100755095 0.0305174589 -0.3295955956 0.0069922535 0.1769915372 0.2087840736 0.2493324429 0.1811046153 -0.3677851558 0.2784992158 -0.1535639018 0.1314740479 -0.1209750250 -0.3295482993 0.4378476441 0.0037282624 0.2483425438 0.2493246496 -0.3097564578 -0.1887496561 0.4441145062 -0.2715056837 0.0852988958 0.4921793640 -0.1845560968 0.3549940288 -0.3339097202 0.0777019635 -0.2248767018 0.2587838471 0.1993374228 -0.0042258571 0.5635828376 0.5657740831 0.2040947080 0.1786361933 -0.0400466844 -0.0891368687 -0.1107441410 0.1244523302 0.2997933626 -0.1875940710 0.1241588965 0.2054963708 0.2099837512 -0.2100057006 1.0028914213 -0.3353415728 0.0607544333 0.5667557120 0.3585324883 0.2737902999 -0.1324793100 -0.0336238146 0.0348972753 0.3366294205 -0.1217915788 0.2296559066 0.7127265334 0.3129142523 0.1015612110 