0.0824975893 -4.2775726318 -4.8903837204 -8.6212120056 -6.4806175232 -0.3527730703 4.8976287842 -3.1512370110 -8.6536931992 0.6224350929 -4.0629367828 -4.8388867378 -9.3276548386 -2.4634783268 1.3672027588 -0.9250256419 -0.6359729171 -8.5341720581 -0.2407200634 -0.6031719446 -1.9720124006 -2.4576389790 -4.5030164719 -4.0296745300 3.2187955379 3.2354092598 -1.3621158600 -9.7869091034 0.5300767422 0.0218846500 -3.6548442841 -8.9017190933 1.4362876415 -8.8040580750 5.5641322136 -2.0186707973 -10.4587163925 1.0694235563 -3.6068692207 -4.9726777077 -4.9376549721 0.6014096737 -5.5743103027 -5.9357223511 -1.1171511412 -0.7054124475 -2.7360899448 -2.1254508495 -9.1393499374 -5.8150582314 -7.4245047569 0.0168128535 -7.5541439056 -4.6848230362 -8.6997756958 -2.4571640491 -8.8365583420 1.5481181145 -6.1693215370 -2.2766180038 -1.4385739565 -8.7148113251 -3.2325186729 -1.3452402353 -0.2933559418 -1.1989209652 7.1647882462 -7.4742250443 -0.5916973948 0.7855513096 -9.7456150055 5.0999994278 -6.2853493690 0.0684114993 -3.4278221130 -4.1047191620 0.6962586641 -6.2297587395 -3.1239454746 -8.1601734161 5.0200920105 0.9105902910 -5.8647823334 -0.5258618593 7.0412969589 -5.0873885155 -2.3337793350 -7.6357445717 0.0153182317 -0.1843072623 0.6568921804 -5.1414833069 -2.5525491238 -2.7433347702 6.6073560715 -0.4732521772 12.2353200912 1.0047335625 -4.3698768616 -8.9624624252 -9.5315046310 -1.0423773527 8.8577165604 -0.0477507897 4.9157600403 -10.3880491257 -1.6043137312 -9.6462869644 -3.1180768013 0.2439931184 -8.7545328140 -1.2400754690 -10.1863451004 -5.6562352180 -7.4864873886 -6.7279567719 -3.6643435955 -6.9541535378 -0.9295221567 -2.5794460773 -2.2865843773 -10.6081199646 -0.3182429373 4.0320200920 -4.5487256050 -10.1490879059 -0.0079544764 -9.1354942322 -7.0931506157 -9.9460906982 -0.3600526750 -9.2017478943 0.3769148290 16.9480895996 0.4825122952 -0.9388169050 0.7242007852 -9.0161781311 -0.9270325303 -4.7469081879 -5.5515279770 -0.9408443570 -4.7727017403 -7.0371766090 