0.2882712483 -1.4052127600 0.4169321656 -0.2551663816 0.0960557088 0.5486950874 0.5766069889 0.3529998660 -0.0888452232 0.1806651950 0.0073981876 1.0920723677 -0.1332328022 0.1942990124 0.1275034547 -0.3346904814 1.4138946533 0.6560190916 -0.1342810541 0.1359249800 0.5234378576 0.1024127156 0.2178575993 0.3918578327 -0.7879066467 -1.4284567833 -1.3178784847 -0.7683160305 0.3715231419 0.0107027115 -0.1153074428 -0.4344656765 0.3799667060 -0.3733486235 -0.3616345823 0.2173542678 -0.2579409778 -0.9512764215 1.0503931046 0.3844815493 -0.3209717274 0.0951204523 -0.1520031691 0.2319046259 -0.3202315569 -0.0755351409 -1.1011096239 -0.0882037655 0.3455570638 -1.0209119320 0.4562101662 0.2593128979 0.4254271388 -0.1419543475 -0.8910923004 -0.1640089005 0.4008280933 0.5246535540 -0.9851639867 -0.1876275092 0.1048299968 0.6942387223 -0.1353855580 -0.0746402517 -0.1667583883 -0.0323921777 0.2898863554 1.2929306030 0.5063416362 -1.2153232098 0.5342122912 0.3617086709 0.4390006959 0.5519111156 -0.1578691155 -0.6311520338 0.7078264356 0.0465413556 0.6660443544 0.1076581180 