0.8184025884 1.8227251768 1.9806259871 1.4234195948 -0.5616216063 -0.6637925506 0.8529073596 1.6190307140 2.1116933823 -0.8699150085 1.1556547880 0.3091380596 0.5417796969 1.0109969378 0.9705007672 -0.9302868843 -1.0377649069 1.4385678768 1.8860597610 0.9126885533 1.3979635239 0.8899842501 -1.0796184540 0.7998543978 1.9755959511 2.0143725872 -0.1834204495 0.9760869145 -1.3488727808 -0.4486371279 -0.6610246301 1.6292979717 1.2930998802 2.0257368088 -0.1311028302 2.2182662487 1.4675313234 -0.1683709472 1.4178777933 0.3261354566 -0.5732381344 -0.3707825541 -0.1501609236 0.1909520626 -0.6412525177 -1.1545448303 1.1738185883 -0.7026808858 1.7504482269 2.4260468483 0.9242345095 1.0392253399 0.3264112473 -0.9445118904 -0.9893146753 2.3689038754 1.2829781771 1.7696223259 -0.8607811928 -1.0447978973 -0.8981271386 2.4737441540 1.1617789268 -0.1306425035 -0.4338791370 -0.3917770386 1.4095507860 1.7966378927 1.8263368607 0.5703137517 1.5832101107 1.3103287220 1.6663957834 1.2640241385 -0.6739329696 1.9849563837 0.6444153786 -0.6182347536 0.3039338291 0.0104806451 -0.8450020552 1.4313668013 -1.0922851562 -1.0881173611 2.1301939487 -1.0666936636 1.2128520012 0.8505049348 -0.7567774057 1.4108570814 1.2980073690 1.7216577530 -0.9231619835 1.3801116943 0.7096145749 -0.9982080460 1.8306401968 -0.8546578288 0.9982479215 0.3802537024 -1.0704780817 0.6841841340 -1.2049744129 1.6311045885 