-0.4366433620 -0.9768432975 -3.4196112156 -10.5051517487 2.6095921993 -6.1024770737 -5.9668111801 -2.6987423897 -6.5579395294 0.0217759144 -6.9965872765 1.2916581631 0.9606788754 -0.7844789624 5.3662595749 -5.1723561287 -2.9807100296 3.8038489819 -3.9101281166 -0.5144578218 -2.9178011417 -1.6881086826 1.2917993069 -5.3192682266 -2.7459552288 -4.1399278641 -0.5712740421 -14.0333080292 -3.4823942184 8.1273632050 -0.2813647687 -0.7972521782 5.1444654465 -6.6551332474 -11.2809066772 3.0540354252 3.3713629246 -3.9561531544 3.2488830090 -3.3177950382 2.5327734947 0.7116909623 2.0421442986 -9.5712127686 -11.5198831558 -11.2225189209 8.2213602066 0.8019797206 0.7890347838 4.8707427979 10.2056913376 -1.3932609558 -0.3045934439 -3.2613527775 0.7242590189 -2.2994005680 -11.1946802139 -0.9013902545 -4.4674749374 6.3820824623 -1.0547786951 -9.9896430969 -6.5807933807 2.2310423851 -6.5798745155 5.6394724846 -11.6047086716 0.8607754111 -4.6547446251 -12.6525783539 3.2027938366 -4.4784493446 -0.8490989208 0.6118320227 7.6897068024 -3.8606190681 -3.8789060116 7.0402507782 -1.2511931658 -6.4170761108 6.9993987083 -1.6262487173 -0.4930886328 5.3128724098 -6.4085712433 -10.8367824554 -0.5281180739 0.5507592559 -1.3499243259 -3.4725470543 -4.3745450974 7.4808979034 -3.7120976448 -2.4006781578 -2.8851716518 6.0057811737 -9.9841032028 -5.0077290535 -0.1056820676 -3.2571544647 -5.7581729889 -0.3629850149 -2.0162034035 -1.7805600166 