-2.0640904903 -2.8307585716 1.4203985929 3.1625256538 3.5232591629 4.5889444351 4.8977971077 0.3257667124 -3.0712213516 1.1945782900 -5.9335155487 -4.4190983772 3.2866923809 1.2248014212 1.1590145826 3.8791310787 1.3090347052 2.8684780598 2.5670499802 2.5936698914 0.2554962933 1.1046949625 3.1270394325 6.8807649612 1.5475335121 -0.6982833743 -1.7505359650 1.7472069263 -1.0464999676 -4.8234033585 -2.4141809940 -2.3308234215 5.3757243156 0.5940537453 1.2250882387 -0.7238541842 1.0162484646 2.8453090191 4.6320734024 1.0823763609 -1.6610555649 3.6880817413 0.3720716536 2.7696678638 1.5977231264 2.4800772667 -4.1008977890 -3.2555460930 -0.2652111351 3.3707115650 2.5754635334 1.1241453886 -1.2893363237 1.6358119249 1.4706602097 2.4754395485 0.8874543309 3.3530678749 3.0663027763 2.0516698360 -3.7039704323 0.3197531402 3.0694386959 1.5469846725 0.8753460646 5.5593771935 1.3618427515 -2.0967509747 2.2141275406 4.0654940605 -1.8439818621 0.8049139977 -4.2254385948 4.8836030960 3.5747847557 0.9015921950 -0.4797578752 3.8700442314 4.0568203926 1.2628862858 1.4212708473 5.1852355003 3.3350887299 -2.3509342670 -3.5297729969 -5.7543745041 2.9892351627 0.6459677219 3.4038977623 1.6839786768 2.6957936287 2.1543450356 1.2737808228 0.4229690433 2.9929597378 6.3391170502 0.9543461800 -3.9684064388 3.3706459999 -3.9025325775 2.3681569099 2.8275182247 2.9880330563 -0.9930772781 