0.0549795814 -0.0870681033 -0.1429219842 -0.1015192866 -0.2027788460 -0.1752213836 -0.0846550763 -0.2021868676 0.0512274727 -0.3806372881 -0.4222799242 -0.0038939058 -0.0700412765 -0.1699732989 -0.1586478055 -0.0220112298 -0.1328349262 -0.0394684374 0.0064416840 -0.2252622098 0.1651517153 -0.0775978416 -0.0197550468 -0.0057795071 -0.2056854218 0.0724974796 -0.0769237950 -0.2036152184 -0.1030645296 -0.1899654269 -0.0448173359 -0.2415358871 0.0095387623 -0.1838131547 -0.0379236490 -0.1270242780 -0.1077035367 -0.1891775727 -0.0435642041 0.0904531255 -0.0510319844 -0.0783156976 0.0265575461 -0.1478824019 -0.1849383861 -0.2474156022 -0.1177182496 -0.1702526212 -0.2204922438 0.0539361537 -0.2670103908 0.0021352584 -0.0507215112 -0.2316223234 0.0220888779 -0.1881618649 -0.1228522882 -0.1513277888 0.0581550114 -0.0797547251 -0.0942022353 -0.1066639796 -0.1733262390 -0.1389038861 -0.0056776777 -0.0643832237 -0.2036327720 -0.2014903426 0.0297698155 -0.1654112190 0.0336349085 0.0231083743 0.0578503013 0.0089586321 -0.1696928144 -0.1313112229 -0.1488074958 -0.0113689341 0.0405203998 -0.1108966023 