-6.2695889473 0.1209276915 -5.3553843498 12.4579792023 -2.7149548531 -0.8782531619 -2.3313267231 -9.7959289551 0.2623917162 2.9757294655 0.4327488244 8.3291769028 6.2758612633 3.4171168804 -0.1379450560 -10.1532011032 6.3228464127 -0.8801763058 -0.0694011152 -9.6107292175 11.6099786758 4.2046136856 -10.6039590836 -12.8680410385 -0.0472758524 -0.2606935501 -9.4389848709 -8.8107309341 -10.6607837677 -1.9191904068 -10.4962749481 -0.0934488848 -7.8933839798 -10.1585111618 2.5410115719 -0.2545393705 -1.5230898857 1.3248239756 -5.9701704979 3.1882681847 -2.5405771732 5.4062218666 -7.0210943222 -9.2502574921 -3.9394850731 -10.6888580322 0.1431923807 0.8797453046 -0.3840531409 -7.7542157173 -9.9751186371 -6.9145636559 0.5975968242 -10.6920595169 -10.6989326477 -0.3831877410 -5.8507733345 -0.7720831633 -10.6853027344 7.9206151962 -10.6740932465 -9.7397422791 -10.5206260681 -10.3512287140 -10.6519546509 -6.5740308762 0.4828465879 -0.3040840924 1.9924799204 -9.5191822052 -0.1020193622 -7.4624614716 -1.6683347225 -8.6991195679 -2.8570249081 -10.1109695435 -10.1854314804 -3.5451078415 -10.2618246078 1.6958053112 -10.7198410034 -8.2548503876 -10.7030496597 8.7719001770 -10.3023147583 6.2442708015 -6.4450840950 1.4085085392 -2.6893320084 -3.1725904942 3.4391183853 1.2483340502 -10.6902189255 -6.2065467834 0.2711681724 3.2693545818 -4.5684652328 -10.6938095093 -11.4018230438 -1.1406896114 7.2116537094 -3.1074965000 12.2667932510 -9.2059183121 