0.6847610474 0.8337008953 0.9526844025 -0.7607468963 0.6020637155 1.2977015972 0.8539462686 2.0896139145 1.2939238548 0.2199692577 -0.2820867896 1.0958391428 1.2029044628 1.2293728590 -0.4467785954 0.7885632515 -0.0947886631 0.5335159898 1.0595871210 0.4542548060 0.5307071209 1.2126630545 -0.0977029800 0.8387573361 1.0545146465 0.8368755579 -0.3836745620 -1.2073479891 1.1317166090 -0.9968373179 0.5773151517 0.1617114693 -0.1873848140 1.0686111450 1.1371985674 1.4293510914 1.5684298277 0.5585672855 0.2576531172 0.6981773376 1.4572651386 1.1361160278 -0.7948117256 1.1380869150 1.2505221367 1.6411138773 -0.2501113415 2.1410679817 0.9158259630 0.7939682007 0.5351259112 0.1463820040 0.9578784108 0.7705159187 1.1075929403 1.3930691481 0.5833688974 -0.2093224674 1.8109325171 -0.3656079769 1.3459215164 -0.1947268546 0.2905432284 2.0270774364 0.2570206821 2.0631406307 1.4451725483 1.1030240059 0.3322204053 -1.1287096739 0.6839765906 -0.3422453701 0.6429290771 -0.1202538386 -0.4819554985 0.9903831482 1.0539650917 -0.1407545209 0.7513612509 1.6712623835 -0.5664463043 2.5140402317 1.2879829407 0.1377478391 2.0860493183 0.9274250269 1.2306205034 0.8155311942 0.7354812026 0.9642856121 1.4440472126 -0.5479924083 0.4633445442 1.0221941471 -0.2309745550 -0.6380070448 -0.0952053219 1.2095096111 0.9433826804 0.8029248714 0.9526404142 0.2315482944 0.4806715250 0.9293127060 