-0.0000555208 -0.0000472036 -0.0000314245 0.0000560612 0.0000971105 0.0001098382 -0.0000669061 0.0000059815 -0.0000462428 -0.0000537146 0.0000867231 0.0003341388 -0.0000176573 0.0003856075 0.0001374635 0.0000491831 -0.0000851892 0.0000914319 0.0000202259 -0.0000139813 -0.0001274419 -0.0000813209 0.0000033816 -0.0000929773 -0.0001366542 0.0000666516 0.0000261035 -0.0000250678 0.0001825298 -0.0000297273 0.0000224258 0.0000332436 0.0005747528 -0.0000096459 0.0000010522 0.0000157275 -0.0002834560 -0.0000945515 0.0001019816 0.0000907777 0.0001153300 0.0000057570 0.0000051367 0.0001090116 0.0000907552 -0.0000757171 0.0000003199 0.0000226170 -0.0000398709 -0.0001288057 0.0000146318 0.0001509474 -0.0001730275 0.0000923625 -0.0001133560 0.0000011964 -0.0000621032 0.0001071377 0.0001630684 -0.0001791988 0.0001212261 0.0000576573 0.0001073732 0.0000576754 0.0000370997 -0.0001323823 0.0000980962 -0.0001696576 0.0001407488 -0.0000518180 -0.0001790987 -0.0000874679 -0.0000480903 0.0000334806 0.0001723852 -0.0001552546 -0.0002637913 -0.0000023092 0.0000239041 -0.0001275894 0.0000655822 -0.0001021213 0.0002267819 0.0000414394 0.0000741352 -0.0000440754 0.0000993172 -0.0000046096 -0.0000566424 0.0001056914 0.0001552816 0.0001031357 -0.0000802051 -0.0002068278 -0.0000291154 0.0000072137 0.0000787088 0.0000570656 0.0002647368 0.0000593840 -0.0003095260 0.0001012899 -0.0000164673 0.0002366022 