12.5864928783 0.4595080192 -1.0478031799 -0.2449792632 0.2564181551 1.7869289908 7.6395702584 3.4729655697 2.2447274431 -0.5078464461 0.0107209595 0.7337447283 -0.4282092353 -0.5737310990 -0.3392558198 0.8906588785 0.0731010361 -0.5643931438 -0.8116187760 7.6282819451 -0.6688447876 9.3474180427 -1.2844145238 13.5838172073 8.5444626523 10.9399847060 0.2865869364 2.0183968654 -13.2472040722 24.4418219282 0.3671380176 0.0994712641 7.1962189840 7.9308136466 0.3856412105 -0.0965376808 8.6974698212 -0.3785645252 11.6651754341 0.7949383217 -0.2355093312 1.6034120902 -0.3063452711 -0.2400435474 -0.1083649521 7.5638583231 -4.7417013197 -19.7240855720 0.5587235903 12.0207993579 1.1618012165 -0.7177995465 -2.5142537391 -0.0699153156 -0.3033492538 -1.3450193459 0.1610772878 3.7119741279 0.1496582020 7.1404053938 -0.0575357462 0.1261682529 12.4676820709 5.0748465463 0.0000626923 -3.8887733626 8.3148130648 -0.9465179829 0.0690864386 -0.8816877106 8.9167623046 0.2860897141 0.2442763426 0.5175016351 -0.4685482788 -0.5183895892 2.4619066835 -0.1139662879 -0.3952312310 -0.3936783869 8.9587254045 -2.1566640983 7.7791693560 -0.6701873510 -2.2188706358 4.9413281466 -0.5347687224 11.1560773686 2.9054762012 0.0302681024 6.1469296014 0.3247383665 0.3535095304 9.9926999015 2.8276944523 19.9761842078 