0.5535761196 -10.2548016913 0.1813892467 -3.2103308680 4.6139494529 -2.4862550225 10.8449759252 -7.1356157935 -7.3688280936 -0.2147839922 0.0520390377 -1.6020142863 -1.7815643885 -7.1722938159 1.5127542639 -11.0648585657 -9.0007195576 -17.9499036917 -2.4742638308 0.0601654472 -0.6015117695 12.9349356831 1.6186079750 -10.5242267337 6.5100890377 0.0058702134 -10.0074049274 -0.1062820860 -0.5174264739 0.0651342212 -0.4717595050 10.2230271126 11.5409046591 -9.2869250328 1.7689836675 8.8343086422 -9.5518813246 -0.1989636156 -5.8286091204 -12.1956014581 -9.0798418492 -0.0184856657 -1.8346665567 -0.0049288408 -7.1519085306 0.2484022667 -2.8898218188 0.1641434427 -7.4250692737 -2.8397587561 -13.3945711467 -0.8465764125 1.1112068708 1.2423543322 -0.0391395767 1.6348855547 -3.7783263078 1.7442434635 -0.0384750607 -0.9777593957 -10.6445339155 -3.7166393267 4.0120192831 -10.9015379956 0.9740564578 4.6363355467 -5.5354754312 -0.0923024469 0.2619164007 -0.3393424044 0.9093093446 0.2598207470 -10.3696372284 -0.0134793147 5.6785461107 5.4262169094 -1.4358195359 -1.2017995159 -0.4337347808 -5.9955786969 