0.3617896026 -1.5298087939 -5.3143236921 2.1233502246 -4.1031942681 -12.8752778592 15.0926625603 -2.2767604387 -2.5779938994 3.1239131489 1.3694845500 1.0043047604 -0.8504598828 -2.2959994355 7.7604360225 -1.6995622520 0.3898017919 -2.3509523446 6.1094709382 -0.5969561974 6.0609948537 -2.3060518795 -2.9058557009 -8.8801822101 17.0478428025 0.7443259909 7.2518030389 1.2552815700 0.8651417374 0.3302042403 1.8481722906 -2.3056294064 4.4800949506 -2.6325822534 5.6657688716 -1.3702882321 -1.1985960852 6.7410268589 11.6201381613 3.9715930307 -2.5566745910 0.0143633523 -3.2450825419 8.6547539853 7.6440098905 -0.7337726572 -2.2840942139 -2.0733562186 -2.8769936905 -3.1633938349 0.2927896246 -0.0761356446 8.8725693475 1.6508350751 -3.9214017418 6.7708212289 -3.9487497428 16.8329144617 -0.9048048400 -1.9772908114 0.5450834674 -2.5684830109 4.1600399345 7.9866274516 -0.0972069213 -3.1222072315 7.8586320145 2.4010506123 -0.5704109609 3.7271406347 0.5560341019 2.2307274000 -1.9623017264 0.1263933957 5.5509883953 -3.3357836183 9.8416422467 -3.3902710699 -15.6627828396 -6.9862779003 -0.1943752131 3.4838088078 -3.3199408259 1.4902090632 7.2710592516 -6.1677898076 -1.4756075956 -2.3405512009 0.2244532674 0.0245267723 5.0578217834 7.3965720460 4.7336304009 -1.9883795983 6.8365643907 2.0662844605 12.5603903186 7.3599118622 3.0688956097 -3.5885578018 -3.1921438065 14.6709144599 12.4940839124 0.6165843647 11.9592034886 -1.7217630782 -5.0278164807 4.2702004636 -0.6964799815 4.4771196740 3.9086639105 -1.2060055738 -11.6471092030 -2.9267554340 -2.0128350877 -1.2518619871 2.9484607807 0.0595599306 -0.2265908179 -2.4261901677 -1.9054485993 -1.7490407895 0.6511893139 5.7345963394 -4.3149783291 -5.8076719793 0.1565254933 -0.1107188383 -4.6653212909 3.4195295604 2.2365251679 -1.1343986129 2.0450549691 12.1744621638 2.2614375608 -0.8566995099 4.9806084526 -0.8161513169 -0.7572519538 0.3350035510 -2.3951902310 -0.9451856465 7.5952240350 0.7751064790 