0.2213265697 0.1057960888 0.0065225762 10.1304668515 -4.0773148146 0.9465971829 -3.6655811201 2.7535280199 -1.8156878977 0.0317616214 -0.2143818569 -4.1872912771 3.3675657656 4.6262709540 -0.2136188172 4.5379208867 -0.0337498421 -0.2763137739 0.0158725058 -0.2867686925 1.0431655414 -0.2156604414 13.8844755977 2.1401290817 11.0411755292 2.0891713324 2.8413696855 -1.9228876579 -0.2095422122 -3.2198174364 0.3266076856 0.0819480418 2.6518103298 2.0935115132 -0.3914718842 2.0793059490 0.0423058870 13.8350292096 4.6642753204 0.0022972624 -0.1948850611 -0.0010434227 -5.3560563111 -5.6442698603 1.7926520568 -3.4669727017 0.1386336634 -2.2135603685 11.5051748299 -0.6753768130 2.5757224832 -5.5745214025 4.5664037606 -0.1968241406 -0.1800988869 0.0080909393 -5.2909796299 2.7623695877 -4.2169730738 -0.2278465218 -3.9756337624 1.9069400211 1.1892709346 -3.7120206417 0.0017185937 0.0084191213 -1.1938287690 0.2348679103 -3.2261587498 -0.2263558651 -0.2170581572 0.1178462580 3.2617000310 12.0027655766 4.2906750927 -5.6584268386 -3.2732143651 3.6635585146 0.1342060856 -0.8114534813 -0.0422864619 0.6276447118 4.3775005781 -4.1513971671 -4.2702405408 0.0307515190 -0.1148053553 -5.4576041297 0.0249520380 -1.0638244157 1.3563828407 4.2232756090 2.8723287639 2.5617616710 0.3498115788 3.7480499113 