-0.1098672084 -0.4750675758 -0.4429079306 -0.3445490569 -0.3288293972 -0.2561101525 -0.0839394707 -0.2294901019 0.2668587224 -0.4695123099 0.4499474238 0.4654200625 -0.1947477701 0.0746916183 0.4568884519 -0.1356867719 -0.1471932511 0.3794877872 0.2258849912 -0.3252088267 -0.3691567696 0.2787234720 -0.3945857280 0.2488920176 0.1270326650 0.4183826583 0.3674408596 0.1026560659 0.1695748036 0.1788412379 0.2265233791 0.1559795053 0.3614933500 0.2171731530 0.2363484418 -0.0777143699 0.0007895544 0.3541116875 -0.2610500426 -0.0907705362 -0.0553653087 -0.0208173394 -0.4174606443 0.2038571344 -0.0342911365 -0.3205969943 0.4143325662 0.2127307416 -0.3685711416 0.4607361993 0.3635925809 -0.4576853453 -0.2049698448 -0.2770869974 0.0061888279 -0.4632730618 -0.1914502430 -0.0051099023 0.4257500993 0.2943149553 0.2725618316 0.1458518331 -0.2981626052 0.3031229828 0.3994980098 -0.3602589205 -0.1709525759 -0.0739621665 -0.4807796855 0.1643787673 -0.3368181723 0.3692632479 -0.2758702271 -0.4385668100 0.3956752313 0.0405520076 0.4518320487 -0.0020799789 -0.4286906615 -0.1434125379 0.1972226864 0.4033621651 -0.4656260818 -0.2021860577 -0.0220858166 0.4996263515 -0.4890314175 -0.3210462992 -0.3593086460 0.3317135102 0.4572063864 -0.4521449607 0.2805253547 0.1439220458 -0.3651018706 -0.3639464737 -0.0665154367 -0.1742955408 -0.0833047614 -0.3630413383 -0.4199781002 -0.0045108082 -0.4152687138 -0.1570498651 -0.1801099985 -0.1125859778 -0.2666460709 -0.3084560367 -0.4918383387 0.0468399516 0.4795000810 -0.1905978780 -0.2469043227 -0.1839485371 -0.3090618153 0.2267229370 -0.2352997830 0.0315654772 0.1388926720 -0.0862233558 0.4179069812 0.4137480741 0.3311018886 0.0356366306 -0.2137151907 -0.0010055990 0.3321202161 -0.0501711621 -0.2934823480 -0.4893012279 -0.3010353821 -0.2995592386 -0.2918843169 -0.1765966121 0.1248200820 -0.3665906889 0.0260547043 -0.0091014513 0.3216521862 -0.4328198337 0.4715203109 -0.2064859503 0.0728689197 -0.1445735538 0.0633964997 -0.0303796281 -0.2471767226 -0.3077352053 0.1348493607 -0.0901153405 0.0238927395 -0.1627249856 0.1901705692 -0.1234464767 0.0208031340 -0.4561070254 0.3367062793 0.1543312099 -0.1638693981 0.2179205981 0.0379750503 -0.2249763860 -0.4340988684 0.0582557092 -0.1172857906 0.0484164185 -0.1207290011 -0.2630091245 -0.0983563300 -0.4385007715 -0.4395709670 0.1403990536 -0.2509048691 0.2922180330 0.0336641177 -0.3595837668 0.1813911179 -0.0665954979 0.3826442945 0.0004364600 0.3250612197 0.1217150913 -0.2815137443 -0.3732057920 0.3715996774 -0.1803966425 -0.4027963003 -0.2646369568 0.1636347742 0.4527281768 0.4278378757 -0.0134553807 0.4881688410 -0.1250957896 0.2876483163 -0.3211004770 -0.1928468255 0.4073032138 0.0344475782 -0.0494694159 0.4951390897 0.3362393532 -0.3773066758 -0.0182277410 0.1749272774 0.2836702199 -0.1973625411 -0.0343965578 -0.2540840444 0.3938359971 -0.4354732971 0.1375911278 0.3211894066 0.0263837714 -0.3546794573 0.3186966632 0.4011339136 0.1163960238 0.0343401789 -0.3572159122 0.3552665335 0.0658725616 -0.4674736849 -0.3617508032 -0.0072947217 -0.0435983445 -0.3457584848 -0.0502472443 0.2948937663 -0.3711428449 -0.3358977244 -0.4479898150 0.3107470471 -0.4274665494 -0.2096634939 0.2805957747 -0.1583183422 0.2309669000 -0.4653106500 -0.0707927784 -0.0926448102 -0.3401045467 0.3275661816 -0.4699353699 0.3472754626 -0.0755055198 0.4392543487 -0.2225111294 0.4969146518 0.3593953964 0.2597829694 -0.2191484495 0.2706765960 0.4581945347 -0.2788147860 0.3089939748 