-0.9687619451 -7.1472814389 -0.0051464818 1.6002535159 0.1074866289 -3.1941528987 -0.0252260674 6.7325614429 1.5911556295 4.3053497541 -0.1478474564 1.2935044743 3.4548206086 -2.4216349443 4.8359503575 0.5523853964 2.7517980112 -0.3422612952 -0.8901613378 -0.1056472765 0.0391856843 4.5136596678 -0.6568382064 1.2995880627 2.6620281927 -5.7869006210 -4.1714513059 -0.1392138066 -4.4933843019 -0.9303736811 -4.0101214984 5.0605102695 0.6504110605 3.8574363255 -0.2203032809 6.4312219456 8.5420356685 -0.0776453041 2.2863657803 -7.5634416433 -0.0242636813 -9.2282985329 2.9535339466 6.5145387616 -0.0906325055 -3.0631148185 -4.4043172155 -0.3862253082 -0.2209949155 2.5109181855 -1.1953906237 6.4975597177 1.3995883356 -0.0257560543 1.5359446243 -3.6698736389 0.2300356089 3.1412754357 -2.3422002169 5.4597194754 -0.3570037999 0.3447958390 0.5979491207 1.2039430069 5.9232899399 11.6746690381 -0.2899795265 0.5001363107 -2.8944274423 0.0253645139 -0.1770331199 5.4828629167 7.7236550721 0.1901270976 1.1613824618 7.4412196572 -0.1036237891 -2.5441620619 1.3647163008 4.4101441404 5.5676212359 -0.2335842825 -0.0430092899 6.5177875192 4.1841726749 0.0554286518 -0.0286468817 -4.2117083570 4.5533603723 -0.9066752824 3.6263026035 -0.0965779313 0.4865825540 0.6367336685 -0.1544574438 6.2646827374 -0.0319421574 5.3368271548 2.3579455542 -0.0397801143 0.0471921281 3.0678753446 -1.0056895143 3.8011739101 