-1.3918406850 -2.3649288756 -1.5944357904 -5.2151938597 2.2120872331 2.1358234721 -10.0565108337 -0.5931297737 -3.1484392420 -6.8636415772 0.5920873708 -1.4872741211 -2.8462085196 -0.0247990239 -0.7569486601 -0.3466787454 0.4782672304 1.1534397840 -3.4487555082 2.2416623689 -0.8991632852 -9.7928016650 -1.5013235510 -1.8198293615 -2.0465032690 -1.7067223144 2.1893318313 -1.4470126762 -1.1592742426 -4.3574904872 -8.8316130218 0.2218786591 6.7891220840 -9.0785721245 2.1003203099 -6.9357653297 0.0143928187 1.6334491535 9.9245005484 0.4601760208 -9.7976251324 -2.8492352267 -4.2842148596 -0.9414238246 -1.0477327825 -1.6465997590 -3.9409220265 -0.8322107220 -0.8721082247 0.5374347732 4.6429759251 2.1287946423 -3.5607595853 1.4082975553 -4.3223166167 -3.3572926354 2.7092856013 -0.6087782966 -1.6728514093 -1.3385097810 -9.5579786360 0.0596441875 8.3123391530 -1.7188821237 0.2496479472 -0.9378853897 1.2786341200 2.0324206800 1.8977695677 5.3311239990 1.7461934851 -9.9985077587 -0.0876537183 -1.4410987769 -0.5941001943 1.3474601255 1.9793913660 2.1531317626 4.4004274897 -1.4527063955 