0.1886166165 -0.2992497407 -0.4687867796 0.0818067643 -0.2160336460 0.0139340939 0.0595588610 0.2601324772 -0.2992176214 -0.0852660155 0.3522747433 0.2947290027 -0.3341156262 0.0658085239 0.1634389306 -0.0067731890 -0.1981481693 0.1395344484 -0.2841209048 -0.1480888940 -0.2818581272 0.4977174773 0.0885472165 0.4200261512 0.4388808048 -0.1624153636 0.3314603830 -0.0934240540 -0.0300773943 -0.4945529751 0.2107033516 -0.1928888549 0.2433184089 0.1654991280 -0.4078229690 0.4594615858 -0.2819193586 -0.0855893439 0.0229149214 -0.2416474784 -0.3854359098 -0.2197981546 0.4346275563 -0.3409048680 0.0667907701 -0.1894115102 -0.3232225243 -0.0756530596 -0.4028808139 -0.1575144179 0.3636466115 0.0472228967 -0.4837328667 -0.0454421976 -0.1509790342 0.1353115873 0.3086557676 0.4870990727 0.0231392013 0.3890007720 -0.2416991362 -0.3824046876 0.2998213598 -0.1428748222 0.1265964755 0.4138156610 -0.1854593233 0.2946915071 -0.0360791412 -0.4442851157 -0.4257690042 0.1674989213 0.0028640849 -0.0969253902 0.2080106687 0.2530603833 -0.0931407634 0.3319310210 -0.2116931000 -0.2371163310 -0.1124866597 -0.2066084155 0.1781258247 -0.3314347450 0.2948450211 0.1270143232 -0.2710347625 -0.2843153690 0.1636134398 0.3246999535 -0.2507628220 -0.3180835898 0.4507525883 0.0558859801 -0.2162979853 0.1349934859 0.2159452399 0.2652029442 -0.0801238071 -0.1129740783 -0.1396685787 -0.1203927155 0.0839814322 0.2836040379 -0.4996942792 -0.4003705437 -0.0924456749 0.3055193100 0.4576080439 -0.1548656159 -0.3228685101 0.2199345613 0.3106069750 0.4272644984 0.2726173767 -0.3412492270 0.1624161541 -0.2253001962 -0.0087809667 0.0520851528 0.3151346850 0.2201849840 0.4791068742 0.4361632887 -0.3415886171 -0.1332907357 -0.0271196952 -0.1345081401 -0.0999943037 0.2518907947 -0.0890825291 0.1227335302 -0.1724586344 -0.0189167722 -0.4152038121 0.0107156489 -0.1356013169 0.3197521490 0.4998996115 0.0000245805 0.3920713190 -0.2024806033 -0.3399460050 0.3979612069 0.0465765561 -0.2425442853 0.3972165611 0.0531651971 -0.0626524275 0.2722600225 -0.2044096883 -0.2106116366 0.0257224283 -0.4506762762 -0.4645425365 -0.4448541672 -0.1333223149 0.2171904039 0.2108028805 0.2132585617 -0.1180877499 0.3107547224 0.2515069641 -0.4114937511 -0.4364431487 -0.4228274332 0.1515556002 0.1945540232 0.2985605246 0.3698555750 -0.0121866416 -0.2703050666 -0.2504083614 -0.0772642602 0.2323630676 -0.1545532303 -0.2660656468 -0.4390778839 0.0511541282 0.1947141390 0.0676014020 -0.0165220706 -0.3458969937 0.3746136331 -0.0340814095 0.2677788954 0.4710058837 -0.3479252057 -0.4070657248 -0.3207799982 0.3638017802 -0.3051512676 0.0688575982 -0.2061602430 0.2798002776 -0.4976995630 0.2755898372 0.0615339475 -0.3648272951 -0.0760802322 0.0418311179 -0.0488864545 -0.3009453631 -0.1495405566 -0.0961531006 0.4478567396 0.2353838140 -0.4152578246 0.2296852793 0.3590828416 -0.4851270099 0.1287707929 -0.1549367838 0.1612715344 0.4670416844 0.2403132452 0.4604331637 0.0599056742 0.2919480254 0.4430470660 0.4853531130 0.1949272350 0.4040923932 0.3481057592 -0.1781166548 0.1743123425 -0.1328484082 0.4507889000 0.0494163651 -0.3775741412 0.0104074802 -0.4534105736 0.2659812486 -0.2172498468 -0.3986922508 -0.0996634914 0.4169242864 -0.2120716677 -0.1134566454 0.3760005022 0.4114646790 -0.3065876090 -0.3242327831 -0.1153329265 0.1114611424 0.4279623095 0.1394114295 -0.1224043835 -0.2662807698 -0.3049421066 -0.1223491921 0.3651819213 -0.4420928465 0.1393956172 0.3908645994 0.1118627874 0.3917596057 -0.0434220313 -0.4369842639 0.4451425123 -0.4497172716 -0.0899723770 -0.3084517805 0.1384429737 0.4007839454 0.4049540675 0.1054649250 0.2913176242 -0.3526326268 -0.3137899731 -0.0016853269 -0.2204972464 -0.0408462010 -0.0808359710 0.3924086300 0.1897430713 0.4940720863 0.4270819290 0.1339285061 0.2557085390 0.0857478814 -0.1812586868 -0.1247255743 -0.3505426088 0.2602840069 -0.4713318303 -0.0346083594 -0.0732065647 -0.1326618371 -0.0805697848 -0.4582812578 -0.3743545170 -0.3370609177 0.1028168197 0.3602761066 0.4577846019 -0.3577659864 -0.2671250952 0.1624246402 -0.4642580433 0.1576746237 0.1017533253 -0.4165531959 0.0422264035 -0.2939333829 -0.1765248625 -0.3449981689 0.3140838226 0.0404067679 0.0598297317 0.0764712973 0.1384339603 -0.2082575217 -0.1115011608 -0.3339482504 -0.4952123962 0.0674740891 -0.2927196428 0.1807797322 0.2091122931 0.0996983462 -0.2818758240 -0.0903996540 0.2043366856 -0.0286138776 -0.3642816127 0.2189967104 0.3561296554 -0.3395563677 0.3749923303 0.4335562014 -0.1342960737 0.0937581732 0.3100936166 0.3880767165 -0.0305825089 -0.2056467010 -0.4879592921 -0.2244550174 -0.0979943422 0.2359768881 -0.1035993164 0.0027412969 -0.1690690501 -0.3834346052 -0.1718977566 0.4135085385 0.4411104741 0.3044420410 0.1564465770 0.2031795915 -0.2488695149 -0.2927881383 -0.3708023942 0.4826716086 -0.0560214075 -0.2081253394 -0.0452378941 -0.2927512075 -0.2657616612 0.2492231554 0.2922015495 -0.2979111645 -0.0015976515 -0.2643858549 -0.2381969923 -0.1324039515 0.2924524585 0.4891980497 -0.3310881415 -0.1569889181 0.1755524915 -0.2236452458 -0.4343217283 -0.2406560745 0.4348119257 -0.0037490296 -0.1013951682 0.0620009731 0.1407085251 -0.1132551699 0.3792376708 -0.2305955101 0.3590200630 0.0002412547 -0.2721685624 -0.3213201761 -0.2449875781 -0.4955343254 -0.3578015844 0.4407185601 -0.1088293052 0.2147157915 0.0785197860 0.4214789712 -0.3236350563 -0.1597321252 -0.3470327075 0.2515742599 0.0061222442 0.0948806478 -0.0968612624 -0.4431882086 -0.4602838068 0.2922402186 0.3514765503 0.1868763666 0.4597297808 0.3959833298 -0.0807349966 0.2869279400 -0.0195487298 -0.1418417523 0.1813179242 -0.0611674536 -0.3860420861 -0.0768727304 -0.2501243211 0.0525890765 0.3656944245 0.1969009555 0.4147709093 0.4859928243 -0.1405586445 0.0214272182 0.0878393140 -0.4772785629 -0.4837593072 0.3485750610 -0.1110489232 0.1788627049 -0.0949263212 -0.4495828575 -0.1859541388 0.3595420933 0.2311277989 -0.3063068783 -0.1747732598 -0.0969850629 -0.1184937691 0.1426817257 -0.4761030644 -0.0467454900 0.1396160918 -0.3643479312 -0.3226562810 0.4684997320 -0.4527367379 -0.1647299533 -0.3510570195 -0.3466880359 0.3121982069 0.0322894885 -0.0619092239 -0.4399020733 -0.0684640706 -0.4954150865 -0.3652807915 0.2335713392 -0.3585965437 0.3856999148 -0.3973948363 0.1210738434 -0.3593151843 0.0075897994 0.4711310752 -0.4490833126 -0.3610061778 0.4924905711 0.2169085705 -0.4315096292 -0.2855846218 -0.4864899550 0.0686290227 -0.1457964735 -0.4636939215 -0.1907826242 0.2340646271 0.4470745045 -0.3506743995 -0.2105273349 0.0971627562 0.2905928126 -0.1693382191 -0.1423151048 -0.4757320081 0.4728354664 -0.3698505334 0.4684957668 -0.1847077532 -0.3924738664 0.3221956721 0.4949168223 0.3395764690 -0.3181157437 -0.1721204885 -0.3881003733 -0.2491626148 -0.4073416261 -0.0531353576 0.2943360253 0.2896577188 -0.1584256288 0.3007572709 0.3508922046 -0.4157395049 0.1927989546 -0.2682355564 0.4291105423 0.1003545647 0.1912979634 -0.0398871288 