1.9604069891 0.7264625637 13.0095130836 17.5979742560 -3.5325711177 -4.3826256597 4.4240009932 6.5540831784 0.7218729799 -9.5320962462 -0.7098692131 11.6231321750 9.9519705032 10.0104979114 8.8283258096 -10.5613838799 1.1643034152 1.7770005611 0.0967521240 -1.4904492210 16.3866497977 9.8939750102 -10.9106389136 -4.9017856472 0.0698330978 -0.0095378438 -9.4696960088 -8.7947682504 -22.3342392124 -2.3301826659 -10.7282290190 -0.2862391888 3.2287158565 -10.0501778678 2.0628238399 0.0004195966 0.7787066402 0.4812125921 8.2151520524 7.0667146426 -3.3010471572 3.9270545102 -5.2339843440 -9.2141948605 -7.4381755318 -10.8852522193 -1.3366584699 -1.6778572210 0.6623702633 -7.1362500939 3.2212628759 5.8492372195 2.0112812415 -10.7674617503 -10.7892859381 -0.1183715035 7.0179097730 -0.2812945870 -10.7399114714 -1.2285853012 -10.9900964724 -9.6918736670 0.8595758555 -10.3899515544 -10.8326179088 -10.0562216064 -9.3267572053 -0.2323698534 14.0801796859 -2.9978383852 20.9541152511 6.2769920325 11.2826729289 1.4196264603 -6.0145653664 -10.0037820660 -3.1906685056 -4.9081988337 -10.1944403772 1.7984832911 -10.7847270974 3.8546056296 -10.8165179623 2.7317927460 -10.2676946124 2.0702500612 5.5387601582 13.1997778287 -6.2662090478 10.4165372993 15.2825406433 7.1710449299 -10.7477853326 15.1600560260 -1.2778480956 -2.5874538909 18.3245495882 -10.7549814467 -1.7618099177 1.4692750993 -4.3706788994 2.6703489119 3.9207743194 6.0727373134 