5.2425823648 -0.6424635313 -9.8859036776 -10.6044570299 -9.5104334079 -0.8674119066 2.0082845705 -9.5304016590 7.2829760679 -1.0308546646 -0.7368732102 -10.2137072760 -10.6220286157 -2.8584360668 6.5830027471 3.0868361905 3.6578824404 2.9764068516 -10.4086244230 0.2917757169 -9.5647062698 0.0937385378 -0.3418329201 4.1168629484 0.7426208488 -10.1818307917 -1.7167470422 0.0649612050 3.9866019916 0.0835319451 -9.5149155479 -10.5461712925 -2.8667500887 -1.1050041781 -10.1786654276 0.6272020783 0.6863208085 -0.1821482426 -1.1337222665 0.0767855830 0.1100818079 4.8859583268 2.5480076260 0.0941833129 -3.5264016418 0.5874635992 -3.0987035680 2.0090623129 1.4736161832 -4.9210357517 10.0651050153 4.0167386279 -0.2727012839 -8.6026573145 0.1393618525 2.2069874309 1.7204639739 0.0809130369 1.2072355828 0.8235429926 0.0728538228 -9.4805783080 5.8999990792 4.5999670470 5.7842446978 5.2844223791 -9.9449595584 0.5434794509 4.8942763847 2.1962512473 -9.5549349224 0.1891493893 -9.4578694095 0.1362985521 -10.4930644498 0.0447450136 2.9101488827 -9.5711249706 4.5534046125 -0.9776597681 