-0.3839999638 0.2426405691 -0.1696358378 -0.3707576383 -0.2564822179 -0.2669733982 -0.0009259324 0.3895091004 -0.4182360926 -0.0055742009 0.2657968385 -0.3622141550 0.1736799480 -0.0785939011 0.0041727596 -0.2669084626 0.2744143451 -0.1888736037 0.4174807177 -0.4472597843 0.1549145467 -0.1859522587 0.2853911923 -0.3851904414 -0.1266274361 0.3698645586 -0.1515008524 0.1209342126 0.3333956687 0.4390804239 -0.4961286586 0.4176928523 -0.1504677433 0.0801960035 -0.4222131641 -0.0637419963 0.4595669802 0.4844191873 -0.4346188299 -0.0907229348 -0.4026990993 -0.2449845839 -0.1023567386 -0.3316529944 -0.3714137541 -0.4142268948 0.4989058866 0.1993277663 0.0434900205 0.2446430070 0.2282426216 -0.1478824647 -0.1809026294 -0.3718393079 -0.1825569950 0.0538401632 0.2677751473 -0.2048374661 -0.4842501776 0.2346763914 -0.1410027491 0.3911664135 -0.2098115252 0.1286504910 0.4934472353 0.2277811008 -0.2517833317 0.1680194698 0.1592260387 -0.2778645093 0.3657684648 0.3833520034 0.0626714180 0.1336235632 -0.4038758411 -0.3895502305 -0.4929875289 0.2866622966 0.0043401347 0.3183701899 -0.1232747713 -0.3607629265 0.4672505664 -0.2143139112 0.2093641381 -0.0206153449 -0.3498250246 0.3435567909 0.0440615488 -0.1006258459 -0.4661436092 -0.3368179701 -0.1118132417 -0.2538851577 -0.1023806787 0.0995795255 0.4859646202 -0.2692397639 0.4813229886 -0.4748748786 0.0057758722 0.2080439055 0.3942925550 0.3118960171 0.4180326694 -0.3136283198 0.1975066441 0.1864733298 0.2574406851 0.1140567709 0.1746747940 -0.1122948554 -0.2613505912 0.1572161304 0.0806810542 0.4696786062 0.1408509509 0.4651043326 0.2879684108 -0.4046494443 -0.0648903390 0.4281780215 0.3118426368 -0.1725049416 0.1979273055 0.3636377175 -0.3970856038 -0.4543828679 