-7.5405590755 -2.9559672187 3.1291679297 -6.8619215354 -5.5276094063 2.1727188865 -1.6524276825 5.5975633249 1.9149870069 -1.6011249253 -11.4564593183 2.1245456465 5.0999161826 1.2363351122 -6.1314518042 0.5229262946 4.2789134551 15.1866538136 2.8111235607 2.2569503734 -6.9845207594 2.5288992416 13.4178876429 -5.4164009567 5.4215728195 -6.9312658474 1.6243566281 1.7217205975 0.3367843242 2.7242833986 1.2366276832 -1.4758122353 -5.5763065953 8.6218067656 -1.6958295330 1.5590581853 4.1527735540 -8.5852386789 1.6426928246 2.8583831834 1.8778742720 2.1813343145 -7.3747669274 2.4651854897 4.6917135561 9.7149444922 -6.8306257015 -5.9021721806 10.1641244347 12.6643216522 5.6856638834 -7.1111207915 -5.3027451720 3.5994450217 3.6086894105 2.3907957080 1.6321299519 9.3270830488 -1.6490641133 6.6896274765 -2.7175553081 -1.4938575083 -5.8866848467 3.1440763793 -1.4582218447 0.6320192259 3.6384560167 -2.7726729041 -1.0219783746 -0.9567582256 3.1753370429 -0.1848061830 3.6061824670 1.4071071393 0.3844425937 -9.2105764984 2.1052122671 2.4779346969 5.1204821149 -3.2798769751 0.3820379715 -2.4919085563 -1.3199133568 0.5965684030 2.3517229881 12.8551996769 3.6921202107 2.6094860976 -5.3612834780 2.8439408037 5.8149161994 -3.1769598075 1.6302042637 2.4442583532 3.1135565492 -2.5955789842 0.8180372787 -2.5877693047 4.8344757326 1.4170155306 -0.4807914276 -6.8124368893 -6.4484178905 0.3736518050 