0.1838697741 -0.1478231281 -0.2744573063 0.0648283047 -0.2558563010 0.3325572446 -0.3644522541 -0.1999539286 -0.3500576633 -0.4527899167 -0.0570761068 0.1583634779 0.0995895087 -0.0175542703 0.3221961668 0.1331090603 -0.0305465685 -0.1348392205 -0.0613778592 0.4356887354 0.3050258526 0.3819161320 0.2835895429 0.3555131869 0.2033799254 -0.3913725666 -0.3828092863 0.2804981992 -0.1828416791 -0.3268610371 0.1688005525 0.2702296812 0.3604541010 0.4915950707 0.3746978750 -0.2292172429 0.3481525407 0.4293829483 0.1649936061 -0.3751461031 -0.2025095914 -0.3046838186 -0.1391406136 -0.1570188096 0.2018444495 0.0959631026 -0.1006734846 0.1687686642 -0.1721291930 0.3926990274 -0.3291530018 0.4219330591 0.3532673647 0.0062595132 0.3912353508 0.4229206702 -0.3072419346 0.2412552520 -0.4863297654 0.3187378078 -0.4736669296 0.4470755258 0.4204403704 -0.1410831992 0.2222757400 0.1291101483 0.3627137942 -0.1971686073 0.4093573224 0.4767135308 0.0768769016 -0.4795058042 -0.3737348168 -0.3074969554 -0.0962311990 -0.1801598479 0.1321043525 0.0152850951 0.2013940554 -0.2944838883 -0.4379877960 -0.0631905478 0.3798292338 -0.2309255870 0.0594935304 0.3746577456 0.0568491820 0.3415578301 -0.4311984349 0.4263205640 0.2992766318 0.0332054083 0.0205138704 0.4474358285 -0.1115102018 -0.4592365093 0.3052417186 -0.1633323971 0.2567955642 -0.3474730912 -0.2703683621 0.0635462895 0.0567921265 -0.3589890025 0.4231333920 -0.0369998463 0.4339361114 -0.0549767480 -0.4539073330 0.4271070919 -0.4801925784 -0.0866973320 0.0454395262 -0.4501875121 0.2012929495 0.4099245059 -0.2963526981 0.4736467529 0.4207490348 -0.1540148212 0.4397326313 0.0418348827 0.0416602964 -0.2248229553 0.1096049584 0.4442927333 0.0928583381 0.0058016590 