0.2122334403 -0.3884794695 0.2441557931 -0.1324689471 0.1606638963 -0.1610234768 0.1206021750 0.3940915731 0.0771624547 0.0805440177 0.1642873247 0.4518782201 0.3435992887 -0.2868468852 -0.0508346284 0.3422700467 0.2905033109 -0.1235218851 -0.0099443206 0.2659448800 0.4975635669 0.3981108146 -0.1250257517 -0.3184260313 0.0302689534 -0.3540167589 0.3005794780 0.1577558593 -0.2026662964 0.1038349850 -0.1761445858 0.0038416266 -0.0367498372 -0.2695351679 0.4286066943 -0.0516522090 0.1926628224 -0.3400493793 -0.3183883577 0.0595217952 0.3960318392 -0.2250792155 -0.2557430391 0.2791474776 -0.1280450607 0.4779265170 0.1167418658 0.3304957636 -0.0896345279 -0.2659780809 -0.3211026487 -0.4749123898 -0.4109540957 0.4714453896 -0.3898297479 -0.1237903551 -0.1788364882 -0.1702889432 0.3655898656 -0.3899393233 -0.1976580830 0.1929704196 0.0439698133 0.4452831184 -0.4668789967 -0.3410254861 -0.1228960407 0.0551276961 -0.2981162779 -0.4781661965 -0.0751342100 -0.3482422005 -0.4029703783 -0.0093988182 -0.0397586747 -0.3766020346 -0.2129396047 0.3830061628 -0.1335700155 -0.2770875117 -0.3461647957 0.0850195610 0.4761474240 0.1458153353 0.1071888174 -0.1504497458 0.0163891601 0.2431485566 0.3230790295 -0.3291155649 -0.3550167337 -0.1777681192 -0.0668886983 -0.1746216893 0.1064854582 -0.4531975533 -0.1550701964 0.2708774635 0.2111763514 0.4849664045 -0.1422338420 0.2478511331 0.3467287262 0.2709290253 -0.4915737420 0.4266170173 -0.3760810796 -0.4100980523 -0.4154534531 0.0799773449 0.4197044907 0.0026959676 0.0559362236 -0.2423071351 -0.4508870232 0.2101793350 0.3325161117 -0.4405953991 0.2032439128 0.4940750836 0.4042241346 -0.2163282082 -0.4786191258 -0.4172569506 -0.0708835763 0.4961929727 -0.4708769742 -0.3914777805 -0.4316096245 -0.4100334961 0.1228147336 -0.2495981065 -0.0960339811 -0.4330029162 -0.0842651580 -0.1024709078 -0.3782131735 0.1533051415 0.3652385899 -0.4011172807 -0.3940389475 -0.4041485804 -0.4626267934 0.4247982256 -0.3595480864 -0.3458503079 0.3944870431 -0.3025442512 0.1230040367 0.4227302830 0.0787268989 0.4710452739 -0.4813645149 0.4681135362 -0.2592574340 0.2993733894 0.1223431220 0.1374567959 0.1103712238 -0.1600846074 0.2472659445 -0.3405426260 -0.3721832129 0.1579735280 -0.4243128902 -0.0796680149 -0.0447597235 0.0014779519 -0.2997359442 0.3684163217 -0.3615680028 -0.2924104150 -0.1210053450 -0.1281012508 -0.1238858141 -0.0448258108 -0.2143543882 -0.4706220617 -0.3931378073 -0.2328255922 0.2031275002 0.3453827125 0.3124484548 -0.0285885797 -0.2912543321 0.1525888207 -0.0419948061 -0.0761171064 0.1754692680 0.3220145342 -0.2783111401 0.4502871023 -0.4067749552 0.1529636961 -0.4206395516 0.4712349676 0.4376644616 0.2865631873 -0.3636102120 0.1771488298 -0.3144400441 0.2380882648 -0.4671657719 0.1116250654 -0.3203940423 -0.3058890468 0.0042570967 0.1986002192 -0.3211833871 0.0357483942 -0.1117640712 -0.3070219971 0.0327513823 -0.2372936115 0.1460259034 0.2473943923 0.0814412553 0.3616774406 0.0389590192 -0.4431898376 -0.3389868152 0.1099886475 0.4404961933 -0.0932898282 -0.2162442113 -0.4494992767 0.2836808197 0.3559898817 -0.3158411359 0.4612671495 0.2452767753 0.4317571374 -0.4222243367 -0.3451076336 0.4436685163 0.3063232206 -0.3201227968 0.1137777946 0.2346730132 0.1162986874 0.3802147718 0.2605605591 -0.4918726313 0.0799738085 0.4811805852 -0.0906643495 0.1699453087 -0.3184537570 -0.2947459062 0.2455625575 -0.0693845439 -0.3769030406 0.4831061831 0.1921658082 0.3621121705 0.0346783980 