-0.2906706002 0.0694760350 0.1063603263 -0.0480548710 0.0286345530 0.0370855351 0.1763979676 -0.0212629729 -0.0039602713 -0.0241825500 0.0577874255 0.0090353033 -0.3571479907 0.2359318827 0.0497518530 0.0346199806 0.1717393729 0.1287427605 -0.0795710842 0.0689385143 -0.2419062613 -0.0460158097 0.0283914192 -0.0108347288 -0.0566046879 0.0042796569 0.1311356318 -0.0123160864 0.0017486393 0.3455221504 0.0339669452 0.0103034084 -0.0114235621 0.0614197779 -0.0086028432 -0.0515821874 0.0089700782 0.0058473105 -0.0321852258 -0.0233504221 -0.0082642304 0.0156312085 -0.2493763572 -0.0958064935 -0.0008966534 -0.0182242438 0.0347649453 -0.0302750153 0.0504635568 0.0523718401 0.1391175887 1.5537523414 0.0136990469 -0.0992300123 -0.0001885043 -0.0341800078 0.2472037148 0.0061371964 0.0252712766 0.0349097414 -0.0108358687 -0.2254841088 -0.1424237435 0.0858199280 0.0471142335 -0.0152174020 -0.1387607415 0.0480706822 0.0490510403 0.2784104867 -0.0181680447 -0.0842447902 -0.0131990598 0.0644049979 0.0459792666 -0.1220271598 0.0505468405 0.0368714953 0.0252031909 0.1157095710 0.0081439117 0.0583007236 0.0349525971 -0.0295764372 0.1218167489 0.0528888610 0.1077536870 -0.1590878822 -0.0590060029 -0.1086738942 1.2634281379 -0.0018622705 0.1205816230 0.2476949601 0.0284421806 -0.0540617562 0.0135797556 0.1405859496 -0.0975201162 0.0723364022 0.0508202325 -0.0002178905 0.0285766469 0.0089453922 