-0.4903479051 -0.4913763101 0.3525687323 0.2775218118 0.1217249598 -0.1117592041 0.1094495184 0.1419686910 -0.1617836197 -0.3888509365 -0.1389937281 0.3225081699 0.2875683581 0.2938771831 -0.1662795215 -0.3619113551 0.2906434655 0.4039416363 -0.3108170156 -0.2974655677 -0.1522098469 -0.2663041317 0.1581815866 -0.4727399630 0.1805275074 -0.1179868426 -0.2200000325 -0.3395136928 -0.3599770559 0.4028086693 -0.0385249681 -0.0259401752 -0.4764919232 0.1187655641 0.4194913736 0.3344012172 -0.1488988629 -0.3415858089 -0.1031775587 0.1968688517 -0.1922544869 0.2348499339 -0.0503610196 0.3507218516 0.2157925342 -0.1178116857 -0.1725306041 0.4663106355 0.2192305791 -0.3729321562 -0.3521660216 0.1021051273 -0.2420806512 0.3293075711 -0.4735458791 -0.4324349298 0.4429629647 0.2353363722 0.0783072480 -0.2213788235 0.1945403378 -0.1447860956 -0.1364232820 0.4064335052 0.4669559430 -0.3649556883 -0.1458046531 -0.0756469255 -0.3711849061 0.2077977204 0.1943449170 0.1263629239 -0.1018063394 -0.3511483532 0.3342024572 -0.0546970174 -0.3003843484 0.1941851560 -0.1157180520 0.3844157613 -0.2254196402 -0.4998433132 -0.3596100499 0.4612382152 0.0019184932 0.1501449053 -0.4974807660 0.2386973580 0.4000695334 -0.3196713629 0.1592566984 0.2079897671 0.4356256525 -0.3924494526 0.2792080347 0.3270849119 -0.2991072713 -0.1131034244 0.0371896416 -0.2794112863 0.3171498539 0.0114593737 -0.0183537945 -0.1420981805 -0.4329253697 -0.4246499280 0.3602204740 -0.1443157227 -0.0548806943 0.1303447539 0.1255326598 -0.3553804709 -0.1552522543 -0.2102086824 -0.2917406631 -0.3794954599 0.2900049354 -0.1546543666 -0.3052588934 0.3465614807 -0.3296878036 -0.1510081693 -0.4051388337 0.1506276003 0.2662121523 0.3065105806 -0.4372015385 0.4992517546 