-0.1474014015 0.0105024399 0.6573692143 -0.0022612990 -0.0129646877 0.0181248991 0.0138728199 0.0198909743 0.0096986010 0.0265566465 0.0522991108 0.0021212930 -0.0083427270 -0.0100660434 -0.0123511917 -0.0003985860 0.0344147927 -0.0068768212 0.9925258688 -2.4606289075 0.0069039100 0.0009178929 0.6616927578 0.0055642888 0.0019034365 -0.0193579493 -0.0078120302 0.0234722092 -0.0013497455 0.6531825869 0.3223908319 -0.0112734534 0.2169271173 0.0311600862 -0.0055684000 -0.0239347454 -0.0265998776 -0.0120052780 -0.1872404809 0.0358836708 0.0027197623 -0.0289015723 0.0054791630 -2.1455833399 -0.0048855449 0.0005924731 -0.0354037251 -7.4547842598 0.0002232991 0.0216559279 0.0075648157 0.0093554481 0.0089611619 0.0763989895 0.0454973900 -0.0052248668 0.1571979676 0.0760358838 -0.0031261296 0.0213825546 0.0160993094 -0.0116035826 -5.7157147926 -0.0345815490 -0.0140331426 0.0275567042 -0.0293444670 -0.0305964803 0.1544960835 -0.0378534912 -0.0364281093 -0.7035036843 0.0173752820 0.0489163605 -6.3499130381 1.0417808163 -0.0620292918 -0.4701609087 0.0248206506 0.0159016813 