0.0597120802 0.4685113306 0.0671129278 -0.0945996811 -0.1995978760 0.0907072044 -0.1503163913 0.4608433296 -0.0110370258 0.3762838956 -0.3929035271 -0.4691868049 0.3518542291 -0.3579008323 -0.4314776165 0.4663876627 0.4865099253 0.4805479508 0.4257670301 0.0319618140 0.0418241794 -0.1043157392 0.3114659146 0.0166242242 0.4043598226 -0.2353792196 0.3713493979 -0.2475344932 0.0172813506 -0.4804730990 -0.0247551015 0.2935294210 -0.1904629334 0.3747287822 -0.1457441157 -0.2701297142 0.3186476495 -0.4220349948 0.2523581453 0.2963510871 -0.2812744335 0.4497208106 -0.3949153084 0.2944482732 -0.1574027382 0.0212539027 0.2741947302 0.4094377449 0.3722060128 -0.0826549103 -0.1026399245 -0.2688063857 -0.1792194956 0.4492940782 0.0816314299 0.1582357947 -0.4292915406 -0.4827032588 0.1248111220 0.1047442282 0.3027816030 -0.4099000379 0.1522225602 -0.4966039735 -0.0205371799 0.2361010555 0.2373417002 0.4116526054 -0.3500770718 -0.0228795092 0.4973086662 -0.4784371872 0.2350302362 0.3469005459 -0.2325919936 0.4527183128 -0.4622778329 0.1378901030 -0.3696896041 -0.2216651567 -0.0791809345 -0.3478708091 0.2090795129 0.4998007784 -0.0822190166 -0.4549195109 -0.4324451268 -0.4781485767 -0.4926459042 -0.0206355535 0.1663534567 0.0310791340 0.0179757423 0.2045809451 -0.1354665118 -0.4826884829 -0.0290528835 0.0987491950 -0.2845242120 -0.2907555095 0.3566094599 -0.1837494140 0.0225400066 -0.3676658852 -0.2021417803 0.1926253417 0.4321175080 0.1407901953 -0.1786562064 0.3971368763 0.2750408057 0.2184049347 -0.4615123257 0.3430934573 0.3522241050 -0.2889336746 0.2322608574 0.2081990917 -0.4963135280 0.0769953092 0.0097912885 0.0380749555 -0.4732396380 0.3788450489 -0.1214586975 0.3386716421 -0.0599167308 0.0681551839 -0.3319791276 0.0601152039 0.4413417087 -0.2890484022 -0.4854313629 -0.0203724994 -0.3397562345 0.0728174553 -0.1870052366 0.4551070355 -0.0724969244 -0.1498187769 0.1822198370 0.2679789284 -0.2849611749 0.4136487140 -0.3420903074 0.2448509924 0.3102635192 -0.0620352662 -0.3177839038 -0.1381846136 -0.0933651850 -0.3609354444 -0.0840568350 0.3427707173 0.2197652814 -0.3926690642 0.1128831748 -0.2125945340 0.3422392698 -0.4022944382 0.0357674322 -0.2217149745 -0.2547689493 0.3549174361 -0.2513763555 0.3873535781 0.2955687407 -0.0171319241 0.0710833242 0.4494808734 -0.1390461690 -0.1046027468 -0.4737882350 0.0442676840 0.1485252328 -0.3750893567 0.0025144262 0.0679413276 -0.3225463999 -0.3618205069 -0.4060114683 -0.1807190101 0.2318492982 -0.1688653748 -0.2362421176 -0.2620012092 0.2302973422 -0.0968499973 0.3764078766 0.0637155275 0.2217702945 0.0181750886 -0.2088885442 0.4898182090 -0.4199535241 -0.0585148222 0.1953843897 0.3193327235 0.4904415937 -0.1323795537 0.3072448686 0.2604110272 -0.4079717922 0.2807343809 0.4117523081 0.3485037418 -0.3662452732 0.2147550215 0.2643494273 -0.3824351776 0.4939450873 0.0830111888 -0.0111047106 0.1337472459 0.0130046259 0.3057686332 0.0900692700 -0.2086985777 0.0587791744 0.2899618345 0.0240304197 -0.4639077736 0.3429425035 0.1625548371 -0.3992975432 -0.3848319741 0.0924140136 -0.0491158420 -0.4329249583 -0.0618488112 -0.0980138305 0.1678269877 -0.1992563210 0.0511901572 -0.1461025851 -0.4085675455 0.0480466440 0.4298293891 -0.3962968673 0.3689544384 -0.2350916302 0.0658949477 -0.1447861679 -0.3537687936 -0.3238999425 -0.3281763619 0.4889995340 0.3050234209 0.1858170421 0.2722676621 -0.1002962891 0.3085904602 -0.2907708437 0.0795964766 0.1736105664 -0.0179202857 