0.2497419459 -0.4565731020 -0.4714761773 -0.2346232232 0.0001383952 0.2925719120 0.1870195782 0.1896070164 0.4662501888 -0.4655996285 0.2781469861 0.3937543679 0.4813316825 -0.3540449907 0.0536829915 0.0959173834 -0.4802384422 -0.0447427900 -0.3064804401 0.1589969800 -0.0125544804 0.4989645631 0.4356952840 0.4804686114 0.1135314759 -0.0536391940 0.0191204281 -0.4200346953 0.2948962794 -0.3916680828 0.3220980122 -0.3173368062 0.1095470357 -0.2831792319 -0.4270591617 -0.1517453902 0.4380962553 -0.1965453439 -0.4071876386 -0.0491452529 -0.1684024159 0.0361135390 -0.4561260364 -0.1349392743 -0.1183914948 -0.4119209736 0.0300848782 -0.3683307794 0.0297858070 0.1509657170 0.2404231932 -0.1824844967 -0.0629614718 -0.3882727031 -0.3750844294 -0.2181495106 0.0058598850 -0.1555886853 -0.4210384816 0.3479825522 0.2812198018 -0.3785097158 -0.3304224548 0.4966726579 -0.3440408215 0.0665331938 -0.0187852143 0.0625259977 0.2967011396 -0.2798436886 -0.1001660445 0.3262460557 0.4629315291 -0.2966949663 0.3180145050 0.1837730851 -0.3718689812 0.1972839508 -0.2490185615 0.2133090284 0.1513791263 -0.2929440787 -0.0475584983 -0.2301808597 0.4779120461 0.1494002724 -0.0551976129 0.2498591045 -0.3700124557 0.0156438223 -0.2084917284 -0.4241504433 -0.3448792411 -0.2300669818 -0.1411970170 -0.1546324775 0.2584295266 -0.3517141016 -0.4133134144 -0.4138775280 -0.4476627168 -0.0973872330 -0.4636545884 -0.1182624020 -0.4749274154 0.3106092371 -0.1931880915 0.1111471084 -0.2586271037 -0.0749246265 0.4370656216 -0.4932798249 0.0008395972 0.2157066183 -0.3574703682 -0.1799132911 -0.1275247873 -0.0619212216 0.2426177700 -0.2173985991 0.1148430329 -0.4128979872 -0.0121808352 0.3239574645 -0.1933683111 0.4729193854 -0.3474476526 -0.0768953103 