-0.3386721846 0.0845505170 -0.2704840261 -0.4483744984 -0.3253138721 -0.4627888924 0.2136857701 -0.4068021912 0.2260226410 -0.0404201374 0.0487662485 -0.1116779345 0.4380718554 -0.2875919404 0.3016529445 -0.0275736181 0.4482861242 0.0973143464 -0.3958220140 -0.2756398863 -0.0087505808 -0.0977523156 -0.1006986175 0.1003284898 0.2400395031 0.0088404332 -0.1963118729 -0.2747949490 0.1053121500 0.4658142425 -0.4769603749 -0.0719032485 0.0474707494 0.2739244407 0.1846523237 -0.0012150938 0.4403027890 -0.0339211162 0.2618054735 0.2638467923 0.1378946067 -0.3709874022 0.2593851671 -0.4817060452 0.2561228809 -0.1656110308 -0.2868686284 -0.2511155692 -0.4059204488 -0.1940437406 -0.4999208368 0.4937803366 -0.0589563519 0.2004716186 0.1289122028 0.4252501130 -0.3299615325 -0.0222283937 0.1580301661 -0.2859689833 -0.2988382654 -0.2993546903 -0.0495960620 0.4640320008 0.3335723895 0.0842928796 -0.4060839510 0.1391874385 -0.1785758452 0.3301321323 -0.3497514140 0.2861982130 0.1303606292 -0.3421802438 -0.1277591943 0.4599318458 0.2088534296 -0.3672956740 -0.4935475480 -0.1647192337 -0.1651039880 0.2549133800 -0.3350985093 -0.1359832409 -0.0344184602 0.4546658347 -0.1070343841 0.1795992726 -0.0320627311 -0.2569809023 -0.2776818197 -0.1533208641 0.3122236959 -0.1872277793 0.0778144798 -0.4905591219 -0.0429347086 -0.3342989030 0.1282660389 0.2851142958 0.4406721878 0.0524497527 0.2610346851 -0.2986998220 -0.4552332900 -0.4008422875 0.2794153525 -0.1250765633 -0.4786440757 0.0637249889 -0.4932741720 -0.1401496712 0.3232096876 -0.4235274598 -0.4243145543 -0.2436436924 -0.1447179002 -0.3927254477 0.2894730760 0.3062903628 -0.2112566892 0.1498247451 0.3527949525 0.1738594022 -0.2565780330 0.4668534079 -0.4779267686 0.0475650671 0.2232202463 0.3498334648 0.1779446947 0.4104921752 0.3142905095 -0.4593685124 -0.1230172565 -0.3017754239 -0.0940786735 -0.0156648759 0.0017723875 -0.0322294629 0.2780459524 -0.3466624146 0.4004212519 -0.2657059644 -0.0642616022 0.3222933419 -0.2565491199 -0.1154747174 -0.0327592860 0.1189557068 -0.4195302940 0.4568065508 -0.1607188973 0.4798259268 0.2578194253 -0.2690229810 -0.4064028782 0.0092373059 0.1881508012 -0.2463441974 -0.0002945348 -0.0921813203 -0.3853161900 0.0307301579 -0.2147927192 0.2360581144 -0.0440127152 0.0362315137 -0.0503193799 0.4004733056 0.2104615929 -0.3919246591 -0.1714889336 0.2381625607 0.2897999289 0.4279317136 -0.3292147497 0.2532954076 0.0485112385 -0.4313116395 0.0351697948 -0.4865875447 0.1911934539 -0.2795760194 0.0505011999 -0.2099930758 0.2077905929 0.3963457467 -0.4050533206 0.2132471470 -0.4977158152 0.0034981120 0.1721218391 -0.2334662087 0.4192774634 -0.3414735426 -0.1550801895 0.3374726834 -0.4526849753 0.1497889760 0.4495085965 0.4131160132 -0.3003414703 0.3318242127 -0.4107719890 0.1464169442 0.0337327112 0.1832412482 -0.3022648721 0.2597274408 -0.2718895973 -0.1285733930 0.0454450321 0.4177385957 -0.3477169651 -0.3984404766 0.3578932605 0.3741485412 -0.3833745685 0.1854621147 0.0421087019 0.2121125252 0.0498496192 -0.4781538355 0.1917942260 0.1730656864 0.1068838013 0.1624911518 -0.3659550827 0.3647627947 -0.0431093842 -0.3872932990 0.3679104440 -0.0024565890 0.2834058721 -0.4194083398 0.3355373013 -0.4337648666 -0.2524486059 0.3628515798 -0.0741562701 -0.1866244081 -0.0182117802 0.3190611742 0.2960703848 -0.3757097453 0.4612686794 -0.0716414439 0.1585503104 0.4739059500 -0.2757442098 -0.3333638146 0.4434424437 -0.2158567497 0.3845488729 -0.1589484351 