-0.0685419257 -2.2085177611 -0.3907747209 0.3990803279 -3.7850804141 -0.0177084189 3.4460180405 0.1638847259 0.0595217265 0.3863971482 -4.2085660657 -0.3496371838 -26.7556737365 11.5156090699 0.0786634084 7.7181607290 -1.2165244935 -0.0032887427 17.5034816748 0.0655046640 -12.3553496310 -0.0105484897 -0.1190115782 0.1449832844 -3.7261701757 -0.3094383103 2.9863275672 3.2709083608 -0.0714234112 -3.4932733287 -0.2049530690 2.3604462781 -7.5588430456 0.1600911726 -7.5749501880 6.9637939084 -0.0131667800 -0.0018401968 0.0872531315 0.1166395111 -0.4599009738 2.7777411218 0.0353643723 0.0284277626 0.0344227317 -0.1189230626 -0.1643644978 -15.7638426625 -13.8581702077 -16.4435419735 -6.7700711196 0.6261504168 7.1705561353 -44.4415220649 -0.0780614972 -0.0044458571 -1.4700631044 -7.9503369242 3.5683491317 5.6390199532 -7.1587681330 8.6731013696 7.0959470948 0.9766360397 -5.1154935109 0.5928169696 0.6446012945 -9.7811629973 0.0307997515 -0.1430882806 0.7186976194 -0.0881646915 -0.3124140353 2.0967981538 -0.1691566527 0.0940121509 4.8704620295 -9.7327310007 10.6458194717 -0.1613141696 0.0787957840 -0.0519388319 -13.5302061200 -24.9290539802 0.0344559990 0.2974916907 0.5107862704 1.5095361356 -2.2073771523 8.8388612274 -1.1913730439 1.8471158896 -10.6072839056 1.4760043203 -8.8084201898 -0.0497423657 -0.1866739164 0.0106655138 6.8498369550 9.9197318124 2.5621661662 -5.3292251281 0.0631223272 -0.8632497042 1.0963635757 0.2224016115 -13.3640976280 -19.6946243093 -0.2526907436 -19.9059609321 -0.1106078371 -0.0031702137 2.1495132073 0.8578068928 -0.0451462541 -0.1744685362 1.2066588539 5.0859969927 0.0608472994 -2.8740303226 0.2554479929 -0.0591569553 1.3007080876 2.3523355197 1.3499501698 4.8298839692 -7.9707975717 -2.8093015548 -16.3629575694 0.2033947719 -0.0158290214 -7.7364800424 6.3653444312 -1.5712442107 -8.5904382576 -4.1796573125 9.5680513278 -7.6407684139 -0.0536270920 4.8886738159 4.1872585285 -0.0551653679 -14.6970652992 -0.0796122642 