0.4436083804 0.0835788121 0.4124430767 -0.3565341662 0.4018499752 0.1738240127 0.4042593302 -0.3842550759 0.1754406455 0.2059850435 -0.0363463448 0.1032491747 0.4579952016 0.0030083696 0.1676967116 0.1501647025 0.4849440923 0.1166109314 -0.3300727194 0.4846416362 0.1346263051 -0.0087485142 0.1320223080 -0.3221504020 0.0996934351 -0.2211415532 0.1916090387 0.4518400184 0.0710629692 -0.2445961843 0.1309884269 -0.0746740318 -0.0677414559 0.1845242468 -0.4843342420 -0.0715694650 0.0882050168 0.2523949584 -0.3531317445 0.1143441488 0.0595980030 0.1906543558 0.4073641203 0.0846251934 0.4793042401 -0.3569568381 0.3017949651 0.0716999392 0.4884759192 -0.4691232894 0.2967019691 -0.4329383853 0.4186489178 -0.4566643408 0.0521736825 0.0309392989 -0.1522790182 -0.4635462925 0.1009116538 -0.0437239803 0.0243653987 -0.3279307994 -0.4582947205 0.0395720458 0.4282350637 0.2473741443 0.3093898457 0.1149184701 -0.1867297871 -0.2032429912 0.3554119006 -0.2934775411 -0.3527152952 -0.0147695110 0.0731975210 0.0564113327 -0.3145777717 -0.3602810674 0.2521375505 -0.4525203870 0.0944241521 -0.4928086306 0.4484934232 -0.1600641410 -0.3880009624 -0.3110266372 -0.0114237104 0.2111627197 0.3365530424 -0.4786071576 0.2710589499 -0.1506246147 0.4302383188 -0.1017379032 -0.2889101466 -0.1044888155 -0.0695222162 0.0996112958 -0.1370532257 0.0258562001 -0.0204982503 -0.0160694615 -0.0190977867 -0.3015621768 -0.2595886499 -0.0466088095 -0.0817435581 -0.0852202873 0.4133182466 0.1887354138 -0.3227112826 -0.2670257809 0.2612110436 0.3458964543 -0.2782938353 -0.3691719705 -0.3805608822 0.4922232905 0.3005153670 0.3992905868 -0.3762333995 0.3148110686 -0.1332858345 -0.0800939070 0.1031971489 -0.2510232110 0.2742281678 -0.3050539508 