-0.2808561192 -0.2625408825 -0.1515048779 0.1712470223 -0.4906149165 -0.4600110173 -0.2911451360 -0.0881879679 0.0688353087 0.4331824486 -0.1386531492 0.2491729603 -0.4867883532 0.3210833391 0.1900661594 0.2200838507 -0.3677275082 -0.0429228053 0.0494401207 -0.2908695111 -0.3588671432 -0.1537505405 -0.3193084572 0.1799389964 -0.0022764587 -0.2750019829 0.1186937525 0.4536022035 0.1334372180 0.0076178266 0.4003992477 -0.0857710925 0.4033466034 -0.2320807789 -0.2579031542 -0.1151575958 -0.0908258857 -0.1121001471 0.2203535437 -0.0770169532 0.1922646087 0.1665339674 0.4848516333 0.4670993702 0.4383110248 -0.3359741899 0.2845800653 0.4816431202 0.0388553964 -0.0673904158 0.1376578421 0.4798229458 0.3475647130 -0.3895266293 0.4213077006 -0.0371543271 0.1577824680 0.2814194623 0.1051477599 -0.1467188493 -0.1097449355 -0.2739088179 -0.1124048506 -0.4657454043 -0.0679693123 -0.2902075632 -0.2412832844 0.0566433044 -0.1059187981 0.2005156694 -0.0984368479 -0.2671827390 0.0187839542 -0.3700907150 0.4946160763 0.3956955169 -0.4442852075 -0.4201311456 0.4279080078 -0.4147014028 0.3360073832 0.3419207785 0.2875618958 0.1524072884 0.1242010041 -0.0569260319 0.2947593012 0.2071151183 0.0173498150 0.2572299728 -0.0005539281 -0.4827592245 0.1674485504 -0.4599258071 0.2956702191 -0.0475228164 -0.0361650755 0.1995818546 -0.4501567694 0.1504740094 0.0570555782 0.3563526809 0.3246481409 -0.4722552100 0.0756897000 0.1571822932 0.0748651919 -0.3782416097 -0.0052777786 -0.1789398591 -0.1656895448 -0.1195144899 0.1389831271 0.3120243063 -0.1906013188 -0.0579547194 -0.4798843782 0.4737131297 -0.2476803543 0.0331368825 0.4630001593 0.3365901679 -0.1333671431 0.0646180857 0.4142663266 0.4577128069 -0.1278153342 -0.1907196625 0.4835845775 0.4890492238 0.0511807793 0.3715583581 -0.4121534277 -0.3794491918 0.4615265845 -0.4710189647 -0.2047268964 0.2047364331 -0.4555349467 0.4814294504 0.3891934480 -0.0396575118 0.4388141306 0.0531829957 -0.1378636978 -0.0641410379 0.4268509535 -0.4259469559 -0.0979102460 0.3699742184 0.3594800623 0.3771654677 -0.1071164395 -0.2821461004 -0.0828216430 0.3755736800 -0.3832237471 -0.4764098765 -0.2055666735 -0.4672998684 -0.2363064441 -0.1566622770 0.2651227852 -0.1606664244 0.1962930307 0.4909282469 0.0876368373 -0.0111239519 -0.3021630531 0.4728192308 -0.3624360404 -0.2563895701 0.0204768209 0.1195766731 -0.0722150328 0.2054914447 -0.2996853652 0.2585502451 -0.2495372541 0.3692848058 -0.3268953905 -0.2514908800 0.4442260548 -0.1144037774 -0.4750986065 0.0970599293 -0.4745840463 -0.2895607523 -0.2973528913 -0.1567716104 -0.4923130476 -0.4872673764 -0.1511953443 0.4377043292 -0.4991778092 -0.3348408189 0.2098964846 0.4403323569 0.0195202785 0.4902787274 -0.1383928979 -0.0942154064 -0.0270699497 -0.3909764392 0.4425073660 -0.4661070526 0.0527446101 0.4857507763 0.3504251624 0.1845539541 -0.1244133065 0.3119273437 0.3050929216 0.4479519420 0.1811041060 0.2307893211 -0.3933611750 0.1706785740 0.4235853057 -0.3926483285 -0.3568310947 -0.1023774153 -0.0656867673 0.3459673556 -0.1130230614 -0.2367800039 0.2836093070 0.0338684912 -0.3849778277 0.4167703093 -0.4154110184 0.1882951649 0.0745347580 0.2801338559 0.2389707769 -0.2084224485 0.1768490754 -0.1811642057 -0.4092673701 0.3302557712 0.0953895767 0.3453019006 0.3599386721 0.0030293405 0.0569162923 0.3074528378 0.4932674999 0.2840628254 0.3880729600 0.4090034325 0.2746023039 -0.4848812524 0.1961250806 0.0873818128 0.1805850804 -0.0866388147 