0.2524361482 7.7301027029 -2.0593529254 -3.8015354146 0.4398094300 1.7814075566 -0.4724206361 0.7672869644 3.0939139214 -1.3979744884 0.9609371600 -1.1660733792 -1.8199359776 2.5185378033 -0.8086969022 0.6254472049 2.3232851272 1.0416563422 4.7116338910 3.8673436964 1.7932768099 0.4711034521 -2.3187370331 -0.4220593815 -0.3139663048 0.9685023138 -0.6354399138 -1.1655555939 -4.0758420700 0.3178041735 -0.2416758059 1.2833355619 -9.1694209851 -0.9051725762 1.6424567494 2.0882469947 5.6914022740 2.2603128697 -1.2981806936 -0.5566700590 -0.2830994036 -0.5373568428 -0.3665217379 -2.1898537848 1.2560845150 2.0219880487 0.9060436004 -10.5191027398 0.1453240255 -0.2031573425 1.3808080471 0.2577327690 -0.7315906871 2.3732891194 -6.5301608491 -2.0595734577 3.2638894346 2.8558677016 0.1577338551 1.6643497187 -1.2596833540 0.0886557964 2.4422841525 5.5876979836 -1.6610251298 -0.2547013674 1.5290925130 0.1628336443 0.5757487350 -0.4716081793 0.4281254556 1.6933763507 2.4715986996 0.2012101491 3.7970058638 -7.0856302812 1.2703925003 -1.2194899192 1.7164937931 0.9591985035 2.1399993775 0.0985018264 -8.2309477227 -0.9277896662 -1.0152013932 2.4248049030 3.5808386676 -2.0455195993 -0.7602637986 -7.5253943423 1.6523027220 -8.6843589936 -1.1318597415 3.3259934253 3.0828079674 2.1923335144 -2.4942237544 3.1443815795 1.1091109333 1.8973601799 -2.8767663369 -0.1690787530 9.2439613761 -0.4394185998 