-0.1176357423 -0.3999799360 -0.3275051622 0.0885712785 -0.2095774862 0.4145316066 0.2479778918 -0.2889338285 0.2771906974 -0.2105996056 0.2397052484 -0.0211849312 0.3428740754 0.4396146842 -0.2112621506 -0.4317067095 -0.1902268270 0.3719052072 -0.0198722429 0.4941699709 -0.0063301160 0.0488677021 0.2528279724 0.0144329170 0.4634412408 -0.0417065979 0.4836856245 -0.4484617311 -0.0607617334 -0.2844779692 0.2184289240 0.3909117354 0.2164359827 0.1394008589 -0.0436037380 0.0814532913 -0.3983095008 0.0344051366 0.0102398215 -0.0925152973 0.0357422124 -0.3828531057 -0.3616789532 0.4992967492 -0.2682476550 -0.0615626331 0.3833580660 0.1322197904 -0.1289192745 0.3951272976 -0.4532253550 0.0341639835 0.0729722993 -0.3350590280 0.3743445566 -0.0201782499 -0.0228889459 0.4524222097 0.2053846542 0.3411727190 0.3074294371 -0.3427890391 -0.0652518053 -0.4615298762 -0.4820059068 0.2251747751 -0.3848576523 -0.2758682193 0.1015525368 0.2783141805 0.2549909606 0.1327634121 -0.2702523176 0.2215073453 -0.3742419022 0.3064196037 0.4099674201 -0.0154997477 -0.3277967154 -0.3187332128 0.2107059479 -0.3602671468 0.4840677249 -0.3748707510 -0.1498999522 -0.1217583334 -0.4640978474 -0.1736729677 -0.4619180120 -0.2200442357 0.3116684897 0.0473217328 0.4787384779 0.4175056158 0.2375910760 -0.0697180092 -0.0335986722 0.2118825426 0.4861315690 -0.1070215975 -0.4628412487 -0.3670059344 0.0580684114 -0.2399854173 0.2727237728 -0.0205297423 -0.3136943933 0.3100478862 0.2627423356 0.2638587653 0.0685252004 0.1195284934 -0.3457780564 -0.4275697439 0.0397895253 -0.0056334182 -0.4261552614 -0.3829350268 -0.1562221066 -0.4709303550 0.0026926053 0.1591246502 -0.4073161828 -0.2188934699 -0.4540238425 0.1882554602 -0.2098114038 -0.3322522131 