-0.1374531841 0.2297820893 -0.0917230472 -0.0788367510 -0.1310553682 -0.2670335783 -0.4149304880 -0.2967553485 0.4938543320 0.4941842243 0.0774786543 0.1323960823 -0.1074205199 0.1908069765 -0.0309955300 -0.0710482536 0.2762368045 0.0951834405 -0.2618969101 -0.2537713735 0.0241097991 -0.4158563590 0.4681933756 -0.0258308528 0.0660094297 -0.0780264364 -0.0787171752 -0.3073988821 -0.3998267623 -0.4230196196 -0.1564021309 0.2540736901 0.4930172013 0.2680822239 -0.4471990006 0.0838966905 0.0061349509 0.0470773473 0.1117939993 -0.1203234976 -0.0243140068 0.2280491124 0.0904466602 0.3682126989 -0.4523615348 0.2161433331 -0.3683301895 -0.0632880499 0.2767298763 0.1576036720 -0.1812996595 -0.3963668578 0.3227533736 0.3953014714 -0.2381541651 0.2174525275 -0.1262177998 -0.4389556467 0.2357254981 0.2235510193 -0.1987975936 0.2067114548 0.3653871820 0.1990166212 -0.1694637527 0.1659171463 -0.1489305812 0.3197361843 -0.2209447715 0.3518810803 -0.2184933997 -0.4019502641 -0.1055170022 0.1294300983 -0.1373142954 -0.3319446191 -0.2115648015 0.3252581883 0.2190187093 0.0372695978 -0.0254416342 0.1690623671 -0.3545186617 0.2201904797 -0.0682399133 -0.3376799484 0.1985068998 0.2969046586 0.1977832214 -0.0429702568 -0.3468387487 0.3527101085 -0.0025732514 0.2643621228 -0.4456178443 -0.1496973140 0.0874068799 0.0677489194 -0.1763681616 0.3774513158 -0.4298014743 -0.1928777071 -0.3209413230 -0.4978363120 0.1813292175 -0.4497372484 0.4661376263 0.0266727000 0.3617182600 -0.0591507410 0.4705499725 0.1367932432 0.2100330101 -0.2782161816 0.1387423969 0.0860476372 -0.4958521752 0.3554641781 -0.0623243554 0.3910800781 0.1478103055 -0.1106817436 0.3029198268 -0.3476667207 -0.0420975020 0.0224393826 -0.2242875749 0.2473839149 