0.3861390856 -0.1652600497 -0.2171289482 -0.1627901696 -0.3178780365 0.4794733774 0.3094197633 -0.2495773413 0.0271071865 0.1892921164 0.0096805741 0.4179978995 -0.4355225810 0.2253735433 -0.1595845902 -0.3328234140 -0.3717184582 0.3362447807 0.1599861501 -0.4906127076 -0.4600034548 0.1314370595 -0.0542746439 0.4595728195 0.1044227630 0.4586759686 0.0553171347 0.0537503587 0.3517719851 0.0227360596 -0.3513517069 0.0659463447 -0.2542771871 0.1400310750 0.0689021638 -0.2632633722 0.4179384569 0.3790738030 0.1200159955 -0.3034492182 -0.2125037218 -0.2779637263 0.0263390309 -0.3089717380 -0.0242916972 -0.4487020782 0.2728308607 0.3050251934 -0.2691061926 0.1662357848 0.4667328234 0.3211671146 -0.0311697056 0.2640063271 -0.4697549716 -0.2391669425 0.3105504559 0.4520173939 -0.2297883580 0.4068250116 -0.0899759532 0.1802114298 -0.2689363081 -0.4321360394 -0.4925194823 -0.3970129355 -0.0292210649 0.1978925368 0.0305891331 0.2017636992 -0.4071163566 -0.2857120166 0.3605060952 -0.4868807042 0.0065882010 -0.3918800360 -0.0847171089 0.2851503237 0.2519802348 0.0756031075 -0.4613453550 0.1275426607 -0.2154764338 0.4258302467 0.4082471551 0.2644630061 0.0490752463 -0.3760515198 -0.1852739228 -0.1953249006 -0.4685589912 -0.0389188454 -0.1570910307 0.2397302088 -0.0673880050 0.4142064786 0.3703996738 -0.0592253247 -0.1099390394 0.0461455210 0.0346168987 -0.1014335451 -0.1827940443 -0.2131121897 0.2385435181 -0.3349856337 0.0832555534 0.1976985640 -0.4179034106 -0.4416037946 0.1131643543 0.3849514551 0.4046571383 0.3010403918 -0.0315654480 0.1238930383 -0.4774145733 -0.0502537976 -0.4256785630 -0.1670754774 -0.3428674764 0.1042588550 0.4167372451 -0.4546648714 0.0425882715 0.1056038435 0.2753743330 -0.1463322189 