-0.2219965065 0.3160329768 -0.2840150467 0.3995098942 0.0020201981 -0.4380224077 0.3118103907 0.4422150476 0.0886777036 -0.4003488463 -0.1607725161 0.1086900224 -0.1771100127 -0.4877035540 0.0868095598 -0.3464411508 0.2212816940 0.2647288000 0.1308013331 -0.2613939504 0.0561859237 0.2579616415 -0.2037417732 -0.2061085619 -0.1886521182 -0.3674925971 -0.2441423160 0.0879770191 0.4593799530 0.0649168281 0.2691737434 -0.1780474674 0.3124927173 0.2513240535 0.2224370698 -0.1428926570 0.4595617640 -0.3496927230 -0.0654922726 0.0305691696 0.2766156267 0.2285376511 -0.0116717729 0.1471112540 -0.1593585204 -0.1418118739 -0.1279719063 -0.4358782475 0.4207899906 -0.0650412357 -0.3582828615 0.2299058166 -0.1624818844 -0.1149715710 -0.1362515850 0.4931136887 0.0264691882 0.4312671883 0.2983225396 0.0261522119 0.0993420233 -0.0056809935 -0.1973336915 0.3873728525 0.4535686265 0.2128656360 0.1770143512 -0.1565614598 0.3458763643 0.2821092022 0.4235372101 -0.1383259346 0.4216715617 -0.1047168573 0.4548330696 -0.2764251426 0.1209697400 0.1956320881 -0.3616433309 0.4471154194 0.4918511909 -0.2176931919 0.3572271858 -0.3969476559 0.4716165400 -0.1425683171 0.2152313477 -0.0846709748 0.4076499478 -0.1921909666 -0.0300881280 -0.3683726540 -0.2110353757 -0.4531329233 -0.2496971643 0.1331675839 -0.1075511227 -0.4642286237 0.0299679674 0.1105650918 0.4297183297 -0.4166049089 0.0836078571 0.2497822491 -0.2093269442 -0.4316604085 -0.3970247752 -0.1625125189 -0.4354694791 -0.0628758631 -0.4537939965 -0.1150300021 0.1754261077 0.2585941470 0.4211509052 0.4248875364 -0.3604322273 -0.1676064420 0.1882980334 0.0964350392 -0.0745955598 0.1306501504 -0.1013918830 0.0778129391 -0.3778591773 -0.4162262754 0.4047529007 0.0324028709 0.2920160714 0.2128830134 -0.3257966280 -0.2709344053 -0.3988330733 0.4618046855 0.3721526911 0.3465670428 0.3132169746 -0.4237612738 0.0078400277 0.4090920247 0.1337647148 0.1620398644 -0.3025181464 0.2318804837 0.0801679186 -0.0267679142 -0.3656411299 -0.3269921448 -0.1807009836 -0.1790925343 -0.1728443750 0.4469082962 -0.1187846905 0.4680439130 -0.0784443299 -0.1515600398 0.2453645290 -0.3732570412 -0.1480403898 0.1110142624 -0.0014785149 0.3872438376 0.3319594449 0.3750609132 0.0656716410 0.2448234946 -0.2402255987 -0.0145929275 0.3025363972 -0.2483934408 -0.2335732773 -0.1871189232 0.4403999449 -0.0261526565 -0.2524461974 -0.0318569351 -0.3299149729 0.3915629576 0.1254062888 0.4178396890 0.2078197196 0.2029751049 -0.4604641036 -0.1560594748 0.2488224133 -0.0005574265 -0.1163506811 0.4752368558 -0.1924261435 0.4869897702 0.0106181316 0.0134883318 -0.3922794082 0.4096042322 0.4257382150 -0.0800327096 -0.4118303958 0.1977835688 -0.0453572073 0.0764313224 -0.3514524808 -0.2073068897 0.4514380669 -0.2536091115 -0.0859884177 -0.0794388284 0.2454782801 -0.1791172155 -0.1455233453 -0.2901553622 -0.1447899268 -0.2222165198 -0.1552698591 0.4133044952 0.4658429360 -0.4954731458 0.0797337715 -0.3941312677 -0.2751006343 -0.4932260900 0.0627797171 -0.2565562317 0.4212525913 -0.2181295651 -0.0014824871 0.3990119797 0.2058366675 -0.0956681978 0.4880798256 0.0666572764 0.3848710977 -0.3630324586 -0.1636832086 -0.2740028456 -0.0283321334 0.0001620380 0.3398205416 -0.3617906628 0.0396264732 0.3361774024 0.1197570107 0.4219585336 -0.2144131164 -0.1459710897 0.1822022613 0.2760382426 -0.4757577380 0.0319153194 0.2631583765 -0.3440611224 0.0722292626 0.2476407005 -0.3845106641 0.0617292755 0.1789414802 0.3226749447 