-11.6342635787 -1.5497023438 18.8636166295 -7.5666284066 16.9166104457 -10.7222842801 15.9709709901 -4.3713478237 -3.0222407358 -0.7113558908 -3.2718193094 -4.2266320957 -5.7430322385 25.2800426333 -0.7860285950 -8.1404399172 -13.9661468564 23.9333119731 30.0628076277 1.9097201357 11.7987429592 0.3745981472 16.0713870650 -3.7413198102 27.4570516382 -5.2076522370 8.3570063220 23.4663627592 -12.2442804796 -2.3125408797 -10.8007017184 3.5133156578 24.5834753406 -10.6601952479 7.8333517780 -6.2657549829 -11.0219861097 -15.4189192431 0.4001111455 22.3122600956 4.1711545365 -11.3699467178 23.8182778082 1.6081130563 -8.8537397795 13.2192113666 -11.2132816308 -1.1181907348 26.1228522767 17.4478781422 10.1748106667 16.4609982325 19.2899848063 10.2997723255 -2.9202908186 -1.2203980051 9.8314886712 -17.0488422184 19.2394817730 -1.3813132546 -11.3702767389 35.7020691305 15.2670804987 20.2097720167 14.1816938443 0.2254308207 32.3247492131 -11.5885924439 8.2617843910 -15.5887474065 8.9648113956 -15.7049984620 0.0000000000 0.0000000000 0.0000000000 0.0000000000 0.0000000000 0.0000000000 0.0000000000 0.0000000000 