3.9520950976 -0.6509908577 4.4972224716 12.2978367050 -2.0142989548 0.6324314265 -3.2927418601 -2.5019527416 2.7556526646 6.5778835316 -4.9024975673 2.8070209287 -0.2558491152 3.5498464140 3.9583950962 -12.9676878027 -0.3160582503 3.1150019960 4.0826539468 -2.4123002943 -3.9638421470 -0.0317522351 5.1438147176 10.0752360605 1.8030453711 5.3950560319 -1.3837653661 7.1071728089 0.9028162880 -3.8579303706 2.4392208117 -12.6028459896 -3.3289044695 1.8800018187 -2.6278219651 -13.7205005864 -0.0390895945 -8.2884230535 2.1416219803 0.8318390475 15.1053885966 0.2567240487 5.7982479207 -13.1132285573 0.5181009231 -3.2369694031 3.9707957546 -2.7419923478 0.2688040639 -0.7195439895 -12.0299834647 3.0769544550 -2.5957294350 0.1649118311 -7.3829739933 2.3073340631 -2.9536502571 1.2960342977 1.2659040255 0.7940209226 -4.9495798626 0.5796309414 6.2087409354 -2.4394068569 0.4864965494 5.4073885890 -5.2229232080 -8.0964594541 -2.3195248777 -4.6269076074 7.8528814327 2.7172801825 0.0000000000 0.0000000000 0.0000000000 0.0000000000 0.0000000000 0.0000000000 0.0000000000 0.0000000000 