-1.6414727528 -2.6988517497 1.7530802172 -2.9403757376 6.8198402250 -8.9965198653 -2.3364984298 -3.0689409014 1.8843287312 3.4929389104 5.6197997770 -0.8579579163 1.4974289757 -1.7873354137 1.5978845081 -1.5430371011 2.2963793862 -0.5718234025 1.2609256078 -13.6638417831 2.8533874590 -6.3758635086 2.2440316781 -0.7169939210 2.8583404690 -0.5162134729 -17.2999996472 -0.0577264302 6.5762969793 7.2700612875 1.3926913593 11.7546122258 -2.4220707289 4.0594021442 2.1454991366 1.5588523293 4.9052218442 3.3325162467 2.8500455417 -0.7168722397 1.7048633521 6.7015010001 -1.0205396590 1.1283052198 2.1348313133 1.7404333356 7.3842214764 5.4917370156 2.6752446909 -2.4751718388 0.6398075722 0.4010413122 5.8684278708 0.6231874630 -0.0212670124 4.2899072287 -0.2132455167 9.1152477154 0.3542676887 0.8121473542 -14.1830656914 8.7732357598 1.1541215915 -5.5284531597 4.5115961689 2.8754375912 1.5678664840 4.0023043418 4.1776486174 3.6747522721 7.3313780397 1.9898522712 -5.7053702672 1.4715061793 1.6965033160 -0.0560978443 0.3657722350 -0.5468127675 2.1782624103 -9.3023584995 