-10.1807046435 1.8097814280 -0.9707457197 -9.4449706941 18.0937476460 0.9935334281 0.6915852443 -9.5122452367 9.3085103537 -9.5954424792 -0.3087007127 7.8094334344 -5.4970192020 2.2122031020 4.5033998224 -3.6449743673 8.1557046454 -16.5824193524 3.5520340305 -13.0742587184 -9.2792588736 7.4857483905 4.2014955775 0.1795717696 6.9161876412 -9.4958700152 3.3853470792 -9.4790404400 5.1007056420 1.4608144654 -3.4171382997 -9.4578927389 2.4076689543 6.2161681758 2.0587796883 -1.0551623935 -9.2869277517 5.0553061116 -4.8012069327 -14.6661123665 1.8279509848 1.7579215462 -9.4202341423 5.6663899457 2.2878083351 0.7070210338 6.8367652383 1.9352808146 3.7830654632 1.9630311735 4.6264657323 2.2533035887 3.2240643661 -4.8255833543 4.6092143251 -3.2522449398 -14.5215503926 -0.6093016892 4.2267269537 9.0789089670 5.8598990522 5.7418899162 -9.2963016381 -1.4018537136 0.2783273113 3.9003322204 5.9775926936 8.7637909254 2.8728554527 -11.3071167903 1.4070580325 3.4978889847 -0.9037639952 -2.2968754128 -5.9227729424 0.8205290330 4.2586384144 2.7422692379 -7.8808943591 -8.4249412036 