6.0004371524 -4.3258799776 -1.5928796460 -1.7743312651 0.4292924119 -4.4079797931 -1.5431457684 8.4203116810 -2.2161675187 1.7965791836 2.4418657880 2.3539361475 -0.0518295771 2.1015737379 -2.5154754301 1.0392347759 -1.7860505944 -0.8162676586 -2.6688564899 -0.0688122503 0.3451956668 0.4392946591 -0.4158092354 0.5198024823 0.0758500453 0.0972176313 2.9629038511 5.5516442428 -1.1046801120 2.3861841531 0.0699930630 -0.0350862776 0.4374253981 -0.6750745801 0.1477906431 -0.0390170943 0.4519642000 1.4271447994 -3.4834057435 3.1866574403 -0.8672856075 2.8906667669 4.2291493007 -1.0774189876 0.1761636300 3.6582951354 2.3994615782 -0.9738985997 1.0508864139 3.0685528361 -0.6173745762 -1.5255290817 4.9896505062 -0.0493594683 -1.7973693178 -1.1361166751 -1.1620930168 -0.5709748974 0.3497999980 -0.7165445446 -7.1813629945 1.4349875280 -0.4634882392 -2.0619704702 -3.2756931828 -2.7574310577 -1.5589885749 -1.7413401377 -2.1442590153 8.9071288819 -1.1454174493 0.5796689677 5.0740811061 1.4356160895 5.0735509954 -0.1662618285 -0.2417714333 -0.4889221104 0.9431560686 16.1815821795 1.6341023665 1.6221037798 0.5093740363 -0.0620178025 -4.6188477773 2.6249913848 -1.0349302325 4.4998616280 -0.8069198769 2.4007337503 -0.3329588071 -2.0252365228 1.4249741977 -2.6221111724 -7.0744495380 0.4941376606 2.1397019688 3.5708789551 1.2965924417 4.3257348186 -1.1413264525 -1.3847943851 3.0684507176 1.9298451264 3.0257160431 1.0694510042 1.2785725050 11.3249278409 -4.0090612757 -0.7935848627 2.5726953813 1.0048671051 4.2750843869 0.1995259801 3.1377275283 1.0639693011 3.0305689239 -1.5713233214 9.0467925235 3.0725960271 -0.4093330495 -0.9246201450 1.0513530679 4.1483517869 2.8286228185 0.8356291804 1.3197357994 -2.5887325619 0.8798822179 -1.6386125852 6.6234105855 2.0519090695 -1.8980065674 -2.5820120229 5.3985797461 -2.4695928945 -1.3083825400 -0.3832568376 1.0154749735 14.0677602445 1.1062516497 0.8270172957 0.1968660560 -1.6069668888 