-0.4793482248 -0.1523625426 -0.4112057593 -0.2298670290 -0.0699850126 -0.1294802612 -0.1640706091 -0.1272594823 -0.2155459353 -0.1859862431 0.3370687156 -0.2064632578 -0.0879979422 0.4586725188 -0.2954997877 0.2037582722 -0.1207035884 -0.4790885104 -0.3145214881 -0.0185132258 -0.2133507699 0.0411332555 0.1109546838 -0.2308401815 0.3328509932 -0.2848908542 0.3645404966 -0.0501420017 0.2819028990 -0.2098202137 0.2746253292 0.1676793230 0.2798230828 0.2376971382 0.0574830802 -0.1072529713 -0.3279735315 -0.0614750396 -0.3051646676 -0.0303206748 -0.0093482987 -0.0586564493 0.2392649430 -0.1443437210 0.2568973507 -0.0010600445 0.2970376134 0.2714225964 -0.4920940194 0.1756997916 -0.1717430150 -0.3427930126 -0.2986206905 -0.3568653859 0.3911081362 -0.4958566509 -0.2055385943 -0.0069586960 0.2084261361 0.0928506071 0.4698948004 0.3922079677 0.2317943997 -0.4742324432 -0.4698630037 0.1339226240 0.4368530292 -0.4965450285 -0.0420658526 -0.3913818637 -0.1245342616 0.3030390709 -0.3921591507 -0.3391388769 0.0461614805 -0.4732254205 -0.3598576787 -0.1656312076 0.1507029740 -0.1530080911 0.0531147709 0.2760750541 0.4748867540 0.1665608339 -0.4604439320 -0.2275269307 0.1211309050 0.3661460370 -0.2163497933 -0.2075613536 -0.0844349584 0.4507931544 0.4076056428 0.0277758433 -0.1393073155 -0.4924264642 -0.2047178854 0.2985222595 -0.4875480667 0.0457112792 0.4532291100 0.3633138089 0.1165869186 -0.4756226820 -0.0072587305 -0.0141917243 0.0204393784 0.3977078584 0.1935165242 0.0818430217 0.4484520334 0.1388414745 0.0123076800 -0.0530527946 -0.1392012365 0.4005371762 0.1731373647 0.2407630408 -0.3725062879 -0.1137603657 0.1198147189 -0.3670298356 0.4742173549 -0.1329937034 -0.3217450402 0.3380748031 0.1837170132 0.1492477022 