0.4586848088 -0.4260740150 -0.1341197993 0.4174518561 0.0623684891 0.1217487798 -0.0216140024 0.0082278289 0.1657501484 -0.2828834278 -0.3714346817 0.0169434648 0.1027496008 0.2712740723 0.3427264442 -0.1730489629 -0.3326908083 0.3639742116 -0.2718039386 0.3697833271 0.2183511298 -0.1551934320 0.1474015539 -0.0488816188 0.3978737188 0.4001369911 0.3877067457 -0.4510869337 -0.4084954688 -0.4230470276 0.4369825880 -0.2962057364 0.2961229841 -0.0028236269 -0.0667423308 0.2164033858 -0.2318899212 0.4802507975 0.3384673300 -0.3770321060 -0.4748055075 0.1632788210 0.4791269720 0.3467833878 0.2458195433 -0.4172750781 -0.2587843066 -0.2230667762 0.4082944208 0.2754899638 0.1517135191 -0.2212190832 0.1653037375 -0.4281701812 0.1696000100 0.3947934889 0.4084359782 0.3184965899 -0.4887674702 0.1980109971 -0.1916328103 0.4342270130 0.3397003523 -0.1081062129 -0.4054321802 -0.0734114741 0.0082231823 -0.2687073337 -0.1914249525 -0.2168412056 -0.2526668614 -0.4057744341 -0.3999327775 -0.0241447549 0.0860849953 -0.1891325554 -0.1767524728 -0.3188326425 -0.3183963358 -0.0074155152 -0.1209133891 0.1253139253 -0.2305029039 0.0465919031 0.0686845672 0.2948045040 -0.0321718563 -0.1156988962 0.3639221435 0.2515221104 0.1232328672 -0.3151919336 0.4823271653 0.4950674144 0.4854947127 -0.3986847216 -0.4991481589 -0.0228974793 0.3027517619 0.1083750575 0.1553765391 -0.1007516816 -0.0461382064 0.3805792197 -0.1108225997 -0.3567653392 -0.1448639775 -0.1747906765 0.1151047224 -0.0295234886 -0.2780297893 0.2323861404 -0.0616068561 0.0782681508 0.2433830018 -0.2935637404 -0.3381637934 -0.0687119077 -0.4539360885 -0.1462184858 -0.4178986519 0.0319031232 -0.4164755626 0.1982606041 -0.2732454528 -0.3026131348 0.0598086835 -0.2325364010 