-0.2050381334 -0.2166560297 -0.4650043633 0.4213574999 -0.1781440004 0.1373913458 0.3898248074 0.1786265091 -0.2538723820 -0.2250958841 0.0882508454 0.3118670041 0.3979436720 0.1354285853 0.3791545526 -0.3177381916 -0.4892005669 0.4315782420 -0.2914049611 0.4184650010 -0.4391304918 -0.1896909725 0.3747854724 -0.4688907587 0.0035825265 0.3746915522 -0.0799575190 0.2996546164 -0.0000366867 -0.2525833933 -0.3250547238 0.0093536294 0.1134025138 -0.4572594216 0.3343280256 -0.0623334966 0.2760398340 -0.1782405878 -0.0677937976 -0.2008896719 -0.3195470412 -0.3681225464 0.2093923470 0.2537849408 0.0027050919 -0.4869912277 -0.4186599728 0.0828109817 0.2286446048 -0.1595079983 0.4340763864 0.3647027859 -0.4923380306 0.3523290105 0.4186008778 -0.4063155744 0.0011184680 0.0842615930 0.1880687000 -0.1299895485 -0.0376122904 0.2501976985 0.4650415684 -0.4927321853 0.1355732233 0.3559037272 0.3196461924 -0.2094520599 -0.3977982545 0.1418620257 -0.2703664199 -0.3233752560 0.0555927403 -0.4079559183 0.1442376679 0.3016988508 0.2916448588 0.1745719499 0.2459120749 -0.1094120962 -0.3920629467 0.3154009264 -0.0128057072 -0.4630730502 -0.2688599682 0.3394171568 -0.2929824983 -0.4897818181 -0.2407764188 0.3513753844 0.4214821352 -0.0951499354 -0.3552646727 0.3503411343 -0.2385035119 0.1028597041 -0.0249555503 0.0709240121 -0.4302999293 0.4114728509 0.3591130773 0.2262913130 -0.3037640582 -0.1970292899 0.1668846180 -0.4341282073 0.1978220126 0.1070721379 0.0374660320 0.3899418613 -0.0131082888 0.0878039211 -0.4958763401 0.3006930936 0.3834951248 -0.1113190401 0.3781330942 -0.2535826556 0.4428380064 -0.4539305554 -0.1031916380 0.0888706621 -0.1277917018 0.0903121304 -0.1319361094 -0.0804379607 -0.1075197777 0.3125233794 