-0.1732639479 -0.1667788421 0.1483970599 -0.3412569537 0.4743011706 -0.0829714698 -0.1420632651 -0.3396879976 0.0125728591 0.1354943200 0.4668054058 -0.0227916158 -0.2354946052 0.0436431728 -0.3724641650 -0.4312401142 0.2538427850 -0.4619579701 0.1769715764 -0.0831935398 -0.1592969589 -0.3445990560 -0.0314532257 0.1509535871 -0.4688151955 -0.3005983014 0.1063731207 0.1813248614 -0.0186331557 -0.2460574701 -0.2014781703 0.3214764000 0.3361041731 -0.4781601929 0.3110728991 0.0492941198 0.3947755512 0.3800809315 0.3971562581 0.0146642753 -0.2793279286 -0.1192762595 0.4347914732 0.0037426032 0.1512211364 -0.3986091370 0.3768284276 -0.3835775845 -0.0455862118 0.2045033515 0.2870448095 -0.1978989478 0.1934583175 -0.2301437718 -0.3946631113 -0.3347796092 0.2006888272 0.1526722633 0.1703035537 -0.0183420839 -0.2840641111 -0.0851429398 0.4233969873 -0.3204819071 0.4700933794 0.4063643493 0.4561642489 -0.0146779566 -0.2861977600 -0.3221949964 -0.1854460986 -0.4283445832 -0.1035976177 0.2306810378 0.0756608186 -0.0991475644 0.4654988024 0.1759777397 -0.1120077498 -0.3545901268 -0.0224079029 0.0183987598 -0.2592577634 0.2976844613 0.4362797555 0.1949230486 -0.4327614008 0.3654147158 0.2983754655 0.0092763057 -0.2320169213 0.0096508950 -0.2753711382 -0.1671605164 -0.4101525261 0.1638402901 -0.2769515276 0.0352885036 0.2526396881 0.1086220464 -0.1441188930 0.1799027084 0.0794140858 0.0089237922 0.1063476763 0.2144461493 0.3346723597 0.3155251359 0.1466320554 0.1040870693 -0.2293052088 0.1377608726 0.0183798895 0.2874539101 0.3882035553 0.3063174893 -0.0467149850 0.2843469094 -0.3122363389 0.4710976906 -0.2092569860 -0.1595436225 0.3107621926 -0.4322438500 -0.1372334370 -0.4439487200 0.1056105593 0.3436461959 0.2093255585 -0.2957367051 -0.2864860188 0.3143053909 0.0682934247 -0.1478261451 -0.4272673582 -0.0225256307 -0.3597871602 -0.3922888277 -0.4583674527 -0.1066226320 -0.3588227044 0.0837384374 -0.3877179154 -0.1909270824 0.1969831418 -0.3887874717 0.2498532344 -0.3944037799 -0.4465345276 -0.2175099656 -0.3177488230 0.3114172264 -0.4813971011 0.1294499779 0.2766686780 0.0132860744 -0.4762746149 0.4185960038 -0.0557230367 -0.3727061627 -0.2111669685 0.4599252661 -0.2221485657 -0.0602055295 0.3283408208 -0.3996659607 0.2549843256 0.4427913915 0.1258770968 -0.1530416857 0.0341765093 -0.2854262273 0.4816107563 -0.2827407011 -0.1887237698 0.0749890924 0.4958653782 0.4604527001 0.3498502186 -0.2255678607 0.3166022473 -0.0586582950 0.0932931185 -0.0109734622 0.2865635357 -0.2708514985 -0.1776931401 0.0841863591 0.0408606053 -0.1858128123 -0.3233955051 0.0043474225 0.4361223035 -0.2065193222 0.4455061515 0.3048264547 0.2478298340 0.3913503024 0.2378994007 -0.2504810338 0.0067140085 -0.0588371269 0.0035293309 -0.4491546431 0.0951596792 -0.2529274207 0.4181047028 -0.0688490256 0.3203884397 -0.4692613656 0.4787529800 0.1554925915 -0.1995744917 0.3222723402 0.0155187134 -0.1966159592 -0.2626571973 0.2733594177 -0.4245756139 -0.3776907603 0.0187496427 0.3711337802 0.1641194321 -0.2661103715 0.3532421141 0.1964538238 -0.1241754592 -0.1043000741 0.3723536775 -0.1703883508 -0.4433831461 -0.1223337735 -0.4516266094 -0.1088019434 0.3794228052 -0.3364782099 -0.2879015142 -0.3086119594 0.1601146432 -0.2203142760 -0.2346696733 -0.0327607427 0.1318225962 -0.4487696484 -0.3671393486 0.2411912770 0.2701287855 0.0678417823 0.1924240671 0.1709273906 0.3029649810 0.1510641963 0.1736036937 -0.3597948824 -0.3809648902 -0.3912242388 -0.1298994855 -0.3099536475 0.1569317991 0.3397078712 -0.1684267880 0.2778331735 -0.4845950682 0.1349475421 -0.1070938745 -0.2151584572 -0.1945862061 -0.0538340246 -0.4596489426 -0.1809782245 -0.3030673858 0.0009899827 0.1610653576 -0.3592950885 -0.3354897813 -0.2704931467 -0.3842834081 -0.0065557076 0.0119458377 -0.1703131255 -0.4635871753 0.4295048732 -0.0491483312 -0.1644949355 -0.2323743871 -0.2245518986 0.4697039674 0.2730391095 -0.0174723828 -0.3689163813 -0.4586985011 -0.3302595939 -0.4055877983 0.2288484943 0.0627192455 -0.3008848039 0.4246444013 0.1724284105 -0.4215225757 0.3958563972 0.2190382592 -0.4384414420 0.4233993690 -0.4947690904 0.1027601895 -0.4067086682 0.3918734324 -0.0552223950 -0.3602215495 0.3322494578 -0.2524147474 0.1754614098 -0.4073606459 -0.0589964688 0.0464850773 -0.1776593931 0.0139309378 -0.0060633933 0.1801089137 -0.2545788649 0.3062179192 -0.3674156407 0.3257617727 0.2934957645 0.1397438206 -0.4053466235 0.0634200513 -0.2632239905 0.3009995085 -0.3667934133 0.4450622279 0.2268671619 -0.1458249768 0.3802763584 -0.3892535478 0.0759814181 0.2922682839 0.2170729037 -0.2415548035 0.4877120562 -0.0381835287 0.3965006281 0.2608318550 0.4929989611 -0.0807133019 0.4205103674 -0.4984323268 -0.0747345436 0.4825553702 -0.4045261345 0.0321900098 0.2460058920 0.2462198260 0.0754638742 -0.2862696068 0.0729848435 -0.4286703541 -0.1125681671 -0.4631867942 -0.1585494865 0.4991434476 -0.4810927507 -0.4044920485 0.2982795942 0.4860528281 -0.0914574920 -0.4360150440 0.4250844748 0.0072354708 -0.2107184319 -0.0238738229 0.0550665854 -0.1390023706 0.3989002204 0.1665906054 -0.4989645397 -0.0586698498 0.3471126190 0.1912171619 0.2967635236 -0.3281143038 0.4805256032 -0.2490410997 0.2584148257 -0.4662762668 -0.1534882106 0.0821469943 -0.0164931437 0.4626160061 -0.4500178808 -0.0724134119 0.4502698024 0.1381875747 0.2308661658 -0.2244688537 0.1948421562 0.0269880331 0.1453122818 -0.0595184533 0.1997527145 0.3410331570 -0.2791875116 -0.0883499862 0.2973378808 -0.2358419619 -0.0584034943 0.0460548018 -0.4551727734 0.0604975660 -0.4798856040 0.3611133183 0.4790852339 -0.0003347817 -0.2290611638 -0.4700729352 -0.1579647210 0.2228465881 0.1625154011 -0.2959661919 0.0166460804 0.4504834816 -0.0123575837 0.4959082729 -0.4970687946 -0.2354141569 0.4818673314 -0.0798369160 0.3320619195 0.1691451629 -0.3163049750 0.1704852308 -0.3886105906 0.1564988671 0.0843862599 0.1532332496 -0.0680012498 -0.4144551848 -0.2033809204 -0.0378553537 -0.3895138687 0.2542012760 0.4083930978 -0.2806151329 0.3463896767 0.2163268894 -0.3601424833 -0.0122847151 -0.2122576665 -0.0317725571 -0.2282974590 -0.0261143603 -0.0566479936 0.4701071653 0.1915517764 0.3474890272 -0.2891617781 -0.4471393018 0.3117219097 -0.1880037580 -0.0264958816 0.0775301716 -0.4527660238 -0.4999312539 -0.3786911226 -0.1033436200 -0.0678061573 -0.3859077483 -0.0002658006 0.2733261211 -0.4918578733 0.2700334519 0.1798586412 0.4157115291 0.1365857831 0.1666853276 -0.0878652151 0.1086836930 -0.0345353402 0.4836173323 -0.4937530293 0.0587425990 0.2169109394 -0.0544136237 0.1874994531 -0.0114321766 -0.3027193267 -0.4714328565 -0.1306041186 -0.1085807250 0.0478125317 0.0575738120 -0.4733344148 -0.3962993598 0.1396602494 -0.3047620728 0.3046252526 0.3761001596 0.0594694111 -0.2113818737 0.0500239575 0.1200732798 -0.2795506542 0.2888301790 -0.1133615441 -0.4712293826 -0.2281016937 0.3259533641 -0.2978548631 0.4247007670 0.4593338368 0.0795061308 0.3631096652 