-1.2992454934 -9.5702135871 19.1112865655 -9.5764296571 -9.4030323003 0.7191505303 6.9413897986 -0.0583354866 6.8862044484 2.7468120278 0.1518187525 17.6729963315 5.6981610243 2.4149968993 6.5877578726 1.8311480054 0.3550533612 6.0116090233 -9.6174197214 5.5904475334 -8.9526042172 4.0669642078 0.4435600142 0.4316646769 2.9979441003 -0.0032626284 3.3657906619 -0.4312416043 1.5764942416 8.9828282244 0.7994876141 -9.4025997613 0.4634777049 5.5352412793 -0.2009538170 7.6758114655 8.0724835333 5.3185148307 2.0074834060 7.3625265737 6.1088298108 -0.0725047069 2.4564858252 0.2331412871 -0.0441917859 11.2990422512 -9.2051370613 6.2770190574 1.2488652602 6.0110253919 0.7058048395 0.6206337874 16.5517861590 4.3523479613 1.8690198758 -9.3606511390 -9.2830895772 2.0741079422 1.6664780618 5.5723150733 -8.8471799394 -9.2555293646 -9.4929512099 13.5309789992 -9.0448565218 3.9900216307 -0.2988733633 9.0773625762 -0.4148349122 -9.2904379715 -0.6145748786 3.4493853355 -8.2157991180 -9.2921702275 1.1504512086 21.1016030928 -9.3497900137 -0.0586828156 4.1816726407 -0.5517551809 -8.7960921829 -9.6427683695 -9.7466602635 10.4535004582 8.0257926452 8.8858602611 -0.4015370572 -0.7356440792 -9.1850250249 9.6171882056 3.9399727930 3.8539037828 5.1753504591 0.8014429808 8.9284958279 0.2711378582 -9.5238585279 3.8697991069 -9.1096377972 1.6823672929 -9.3578526875 6.1327733950 27.9567769885 5.6175637487 