-0.3441781961 0.1406697986 0.3459599129 -0.1652390840 0.1698083720 0.0275075603 -0.0716637002 -0.3172978216 0.3858011458 0.0882972402 -0.3339423885 0.0906889253 -0.4040134792 0.0358563209 0.4477712790 -0.3040862683 0.0889416676 -0.1372934916 -0.0014926086 0.3636331146 -0.3931715879 0.4029150245 0.3027642165 0.0888365435 0.4533526837 -0.4306163449 -0.1544793656 0.0711216047 -0.4761300760 0.4208952401 -0.4163887621 -0.1689059600 -0.3205686511 0.0097024363 0.1489173850 -0.4780091191 0.2754889435 0.3796041917 -0.0317390845 -0.3543785925 0.4418734661 0.3208729614 -0.1426722749 -0.0598831082 -0.4568280544 -0.3081755585 -0.3488820887 0.2013661812 0.3478153403 -0.3942293394 0.2671042375 -0.1007800413 -0.3354200450 -0.2029218896 0.4994326802 -0.1121245967 -0.3540689921 -0.1093923903 -0.0303937991 0.4935641933 0.1194750514 -0.0151419405 0.4455112907 0.4159381402 -0.3598240607 -0.1844467232 -0.1502107327 -0.0764729272 -0.3602392186 0.0023881597 0.4156982882 0.0016325241 -0.3822741344 -0.4343414125 0.4095492792 -0.4836073523 -0.4925720570 0.3054014111 0.2210377487 -0.2346261283 -0.0559947093 -0.4717903430 -0.3923715174 -0.0572467239 -0.0200866600 -0.2487878331 -0.0440313915 0.4854959138 -0.4183861315 -0.1881937237 0.4907119250 0.3256349068 0.3365410194 -0.0810715012 -0.1040867208 -0.2045356449 0.4862434894 0.2671156133 0.0188281746 0.0086652481 -0.1855196439 -0.3248069580 -0.4478530987 -0.4399190662 -0.2906932890 -0.1802783566 -0.2975055115 -0.4463050407 0.3212930394 -0.0659990110 -0.2238314940 -0.1654568117 0.1165841492 -0.3601849352 -0.3432482419 -0.2873436292 0.1761259588 -0.2768043656 -0.2558681026 -0.1521280535 -0.3806345444 0.3955203135 0.2789429850 -0.1100511600 0.4246858851 -0.3027469864 -0.1401700964 0.3438248313 