-7.6651158098 16.5127280741 -6.4697838982 -0.0086494544 9.5651467155 8.8275560408 -4.5025187598 3.5256926665 0.0599619271 -3.2364932601 8.9779523965 -7.8282366971 3.1856568055 8.8309440759 -1.8105743572 6.2604139848 2.8645188661 9.5100098318 0.3274351012 -3.9039601625 10.5681390711 0.6935887745 1.6644320043 6.8731158359 2.8156285816 0.9705368821 3.2914562541 5.3308941566 -3.4088378007 -8.6202129645 0.2729858084 0.6337467979 -4.1272353797 -3.1918569908 9.8227955429 11.2043472866 -3.4157842526 1.9536132366 2.6961988259 -11.1999767058 -5.3974532274 -4.7282275045 5.2306735435 0.0697414590 -1.8572735568 10.2541121775 4.7153774655 0.9703278578 5.7038125473 -7.9666487566 0.2728806882 2.5343498240 -9.4334062695 -9.1789696527 2.7654953640 -8.8443454999 4.5317359036 8.0230259916 1.8325992378 -2.6312944606 -8.8258403539 2.3614455552 2.2571134452 -0.4185165123 2.0205416334 0.0815680109 -2.8325666118 -6.6359494717 11.1143805416 -2.9232359467 -8.1159831320 -8.5594357947 2.1104008225 -0.4292683968 3.3631100137 17.4459744068 -7.7575831242 -0.8512074002 -0.0050580663 0.9093952977 1.5518727800 8.5023721573 7.9103617983 11.4752453656 0.2285617060 -8.6627250128 -0.2075034302 -5.5039798514 -6.8860842302 8.1675750549 -0.0128982581 -3.2466606971 -4.3494730722 11.6232572759 -8.7597600972 10.6515939557 