15.2811426219 7.6729346794 4.1134533950 -15.7270554461 12.2224329212 7.1683848178 6.9114444627 44.6509121882 8.3090601691 1.6604384915 -8.9575734339 7.8221415304 8.0155033408 26.0666189587 3.7770405571 0.4765650971 -4.0230839383 10.5413704059 5.8337684602 2.1088682751 2.0456260515 13.5160457175 0.5499335975 11.4759272231 7.5638830657 10.5183349016 -4.5087733126 -24.5138200925 10.0689520388 0.2738849831 10.9536775625 1.2623211435 4.1412464499 16.2236314595 -11.2025858117 8.8623990914 10.9419742387 1.2802180518 6.4591885211 5.4318502937 21.2001223403 16.4302278860 -5.6342959077 -9.4557908934 -11.4069502348 -10.7109240786 7.1650473323 28.7844287422 5.7389690614 11.0290899506 19.4612012871 -0.1190833796 2.1752564608 8.1918040399 8.3551305911 17.4406657015 -10.9465760806 -3.2858578965 13.0077623783 4.9248743426 11.3693277668 -11.2903572618 -8.0560189643 34.0331994037 -4.1349940045 36.7012260104 -11.7073934294 9.5060953884 -1.2350833260 -20.7845364214 13.0196741510 -6.2371843084 3.2945438359 -0.3860132687 6.3807310275 -0.2812047511 17.2545527355 4.7422570023 11.2673894502 21.1806717041 5.6159445698 44.7606821567 14.6259539287 6.1272488911 46.4591721960 -10.3071695501 7.6038835832 6.3211929472 4.9352080015 4.4617454773 15.1867243341 6.1702954089 3.9362830087 19.4101278090 -4.4631089199 1.6517221219 -8.4662558479 9.5843037360 3.1982852816 4.3758464273 5.4604085482 1.4169297690 1.8164863598 9.1990095401 