-1.7403664589 9.9029426575 -5.9028096199 -6.1552119255 -2.0059032440 0.1346001625 -2.4168181419 -8.1048526764 14.5420322418 -5.9268503189 -4.3554315567 -4.5162749290 6.7370705605 -1.7000703812 -5.1777677536 2.4053890705 -1.6246389151 -6.9013991356 -2.4115755558 -6.2826247215 5.7562031746 -5.7972807884 -6.9017372131 -4.4879231453 -5.7018241882 3.9866781235 -4.9684562683 -1.5868847370 -3.4805152416 -7.6342630386 11.8531303406 -1.5744270086 4.2693581581 -3.8001015186 0.1589862406 -5.9622259140 -7.8466334343 -0.5300822258 -2.7495672703 -6.6076354980 -5.5651559830 4.7974748611 -2.1104295254 11.1721248627 7.0513772964 -1.4303917885 12.5457830429 -5.7218909264 6.0578675270 -1.3114516735 -0.6510413289 -5.9079098701 12.7326316833 -5.6913161278 -4.7682251930 6.2796134949 12.8897495270 15.2209386826 -2.4494550228 -20.9994087219 -1.8142380714 -1.7194368839 -1.3874301910 -7.6967473030 -3.6143021584 -6.0436511040 -1.8269914389 -3.4732780457 -2.3232221603 5.2566127777 -4.3513169289 -3.2121839523 -0.3273823857 0.4390947223 0.7528829575 0.0429382175 -5.6992254257 -2.6173067093 -5.1300492287 -2.1952996254 3.9963603020 -3.6479635239 5.5956811905 -8.7105770111 -1.0591188669 2.4201812744 -2.6011972427 -5.4178462029 -5.7230062485 -5.7229857445 -6.0613951683 1.6412146091 -6.8649716377 -7.6943521500 5.2719631195 -3.1629300117 10.6743068695 -5.6744709015 -2.7878017426 -1.8072830439 4.9093713760 -6.8203649521 -5.0061831474 -2.6882147789 